406528 522
-0.259093
1.601592
-1.498961
0.174768
0.119264
-0.302023
0.458181
0.188985
0.394975
-2.369839
0.044197
-0.664492
-0.636256
-0.171248
1.731264
-0.764852
0.703151
0.145350
0.093670
1.204121
0.261021
-0.691960
1.681428
-0.702026
0.175199
0.274173
-0.863064
1.186231
1.316539
0.681032
0.942564
0.828367
-0.589718
0.209104
0.860456
0.294421
-0.466873
-1.668783
-0.131742
1.576624
-0.791712
-0.922316
-1.047298
-0.441963
0.955371
-0.032392
0.010280
0.919759
-2.004114
0.180425
-0.004067
0.328624
-0.421684
-0.240951
-2.418405
0.014760
0.437689
-0.235778
-2.365531
1.979186
0.767131
0.742458
-0.099710
0.087249
0.330197
0.938637
0.901309
0.944543
-0.758204
-1.044478
0.194977
-2.188430
1.118910
0.294663
1.144450
-0.294630
-0.580469
-1.582690
-1.985784
2.308965
-0.849881
-0.562200
0.238523
-1.152689
-0.144153
3.267376
0.964104
0.134680
1.058029
0.386196
-0.439270
-0.520294
-0.684892
0.397900
-0.252201
-0.457618
-0.550643
-0.963016
0.314101
0.799390
0.449707
-0.867107
-1.496240
-1.521702
-1.182625
-0.000869
1.128331
0.284671
0.534473
0.105752
-1.149645
0.183454
-0.047586
0.252087
0.200894
-1.108749
-0.077486
-1.672263
0.556771
-0.043433
-0.255667
-0.318448
1.047707
-1.464954
0.349268
-0.861979
1.211398
0.486177
-0.153502
-1.642330
-1.266214
-0.472290
-1.096914
-0.225226
-0.118738
0.592434
-0.195314
-0.622134
-0.589057
-0.398649
-0.232575
1.473490
-0.648918
-2.047102
-1.168488
0.622285
0.615280
0.270222
0.593480
-0.410950
0.683434
-3.297636
1.215547
0.384282
-0.237074
1.606511
0.139196
0.473325
1.265813
-0.236517
1.123716
1.050217
-0.459374
0.765907
1.143152
2.963923
-0.193626
-0.893150
1.005374
0.204822
1.669958
-0.435839
0.398836
0.682963
0.635710
0.925608
0.065441
1.010998
-0.735393
-0.062033
-0.095400
1.841434
1.233589
1.136216
-1.121150
0.136563
0.254688
-0.025842
-0.275574
-1.452332
0.158218
-1.988775
-0.158582
1.003737
1.382706
-0.146401
-1.217008
-0.568854
1.364427
1.530221
0.746779
0.897942
-0.795784
-1.748932
1.148490
1.160780
0.502207
-0.439985
0.843604
0.536179
0.641950
1.307985
-0.649950
-0.649257
-0.193893
-0.730632
-1.477995
-0.705400
-1.105949
0.984091
0.689420
0.672421
-1.654648
-0.588961
0.697458
-0.558326
-0.285984
-1.020732
-1.192056
0.372647
-0.331502
0.318026
-0.342435
-0.229000
0.595974
-1.241293
0.978697
0.650785
1.055116
0.818608
1.134102
1.440859
0.133860
-0.604529
-0.719078
-1.083216
-0.679862
0.355131
0.158299
1.591098
2.142252
1.312571
1.220788
-1.024394
-0.176866
-0.186612
1.142815
-0.046556
0.239866
1.322088
-0.867390
1.126693
0.087268
-1.114742
0.788921
-1.694435
-2.698678
0.705715
-0.735343
-1.366480
-1.064489
-2.143288
-2.372390
-0.509799
-0.393035
-0.205686
-1.352501
-0.715929
1.205796
1.175331
1.763919
0.107532
0.149467
0.074193
0.700043
-0.062508
-0.434323
-1.958775
2.109805
0.224184
1.633640
-1.518082
-1.188897
1.294829
1.471911
2.691790
0.846855
-1.337342
0.827873
0.091409
0.639072
-0.470545
-0.426833
1.871609
0.499167
-0.818280
-0.532474
1.746520
1.515088
0.496108
0.951127
-0.826086
-0.834469
-0.008559
0.703520
0.807083
-0.133657
-0.017213
0.563590
2.586004
0.075228
-0.740190
-1.311684
-0.508975
1.540730
-1.387329
1.276791
0.970180
-1.769531
0.311374
-0.465048
1.147030
-1.135126
1.112825
1.534102
0.116554
-0.953786
1.051458
-0.032043
-0.648770
1.298797
-2.783503
-1.162886
-0.177948
0.810977
-0.520243
0.687168
1.728499
-1.142954
1.226493
-0.199517
-2.360846
1.582768
0.504540
0.397493
1.965529
1.206274
-1.571519
-0.961823
0.276697
0.595032
0.069279
1.023685
-0.433194
-0.471503
-1.548364
0.801642
-0.785637
-0.458351
1.854929
0.850484
-1.214701
-0.237619
-0.313699
0.120848
-0.993864
-1.348856
1.968249
0.243729
-0.542943
1.081199
-0.400987
1.571957
-0.033578
1.252933
-0.653401
1.668706
-0.000299
1.209087
1.144113
-0.725956
-0.702731
1.948533
0.799244
-1.523710
1.382359
-0.718242
-0.742220
-1.009190
0.462229
-0.684320
0.490960
0.134514
-0.375626
2.354820
-0.307753
1.575326
0.664190
-0.673998
-0.005162
0.903848
-2.751269
0.395056
-0.047364
-2.019379
-0.381075
1.629150
-0.362095
-0.525841
-0.471497
0.570179
-0.165300
-1.233903
0.095607
-0.968945
0.043457
-0.401194
1.042608
-1.806287
-0.795704
0.601411
1.672780
0.359393
0.517541
0.505093
0.850955
0.634639
-0.161765
-1.632784
1.250222
-2.188511
1.924348
-1.434929
-0.543477
-0.149880
-0.796810
-1.836603
-0.241289
-0.194430
-0.270812
0.127959
1.408426
0.852500
0.395771
0.813907
-0.985816
-0.710428
-1.432860
-0.079327
-0.826044
0.707580
-0.639974
-0.159057
-0.002772
0.860500
-1.222028
-1.290493
-0.308263
0.373033
-1.157249
-0.185354
-0.530139
0.087132
-1.872264
0.375128
0.365588
-0.906416
1.203358
0.516238
1.183543
0.445533
-0.578359
0.031828
-0.722645
1.070317
1.035220
-1.721368
-0.038797
-0.844221
1.468448
-0.624467
-0.699113
-1.204448
-2.523439
-0.502018
-0.059800
-0.505637
0.025664
0.535307
1.479729
-0.523470
0.991800
0.211829
-1.553687
-1.946221
-1.400471
-0.837875
-0.448939
0.755976
-0.055878
0.944889
0.571513
2.321564
1.324406
-0.356501
0.332445
-0.113199
-0.332187
-0.424281
0.016678
1.119456
0.192863
2.037770
0.197421
0.889628
1.063172
-1.179324
1.308350
1.288024
-1.795198
1.062558
0.774110
-0.415502
0.210069
0.731005
0.154291
-0.118972
0.734998
1.282842
0.023118
0.181048
0.746788
0.153959
1.782188
-1.247705
-0.033840
0.059282
0.379573
0.242692
-1.751030
1.042782
1.239472
0.110013
-0.908724
1.593191
1.050373
2.780274
-0.189332
-1.370299
2.075478
0.007828
-1.200202
0.032265
-0.655714
-0.107733
-0.041560
-0.429738
-0.278810
0.945369
-2.134655
1.662937
1.454273
-2.579743
2.546748
1.333240
1.016044
-0.364777
-2.564784
1.847047
-0.177439
-1.761901
0.269773
-1.527633
0.733180
0.279505
1.864338
1.734560
-1.539343
0.960138
0.542556
-1.556651
0.158204
0.765554
-1.255983
0.691756
-0.433154
-1.062024
0.019210
1.679751
-0.692940
-0.946307
-0.153211
-0.331439
0.220478
-1.963707
-0.742088
1.020300
-0.803721
-1.261098
-1.203340
0.105065
-0.637991
-1.437565
-0.071096
-0.025134
1.123162
1.171464
-0.509465
-0.289933
-0.287698
-2.284379
-0.610331
-0.192236
0.972259
1.773106
-1.028416
-0.372283
-0.162226
-0.619784
0.508410
-0.455277
0.070383
0.103038
1.406644
-0.423701
0.687695
0.240267
1.022049
1.210361
-0.430087
0.709919
0.041430
1.723517
-1.725662
0.513667
0.336090
-1.058475
-0.552045
0.871582
0.967955
0.661369
0.366598
-0.714234
-0.244878
-0.285838
-1.164501
0.284671
-0.657641
1.313601
0.262730
0.315743
0.443315
0.796128
0.271461
-0.037677
1.053809
-0.275735
-0.870830
1.530752
-0.957897
-0.072502
-1.156622
-0.990607
0.788717
0.301122
-0.068993
1.467805
1.043077
-0.245476
0.729097
0.344644
0.420693
-0.751991
-0.125412
-3.691044
-0.313427
-0.021176
-3.044506
0.169928
0.094518
-0.792961
-0.447976
-0.074459
0.383133
-0.436421
0.482032
-0.262138
-0.319820
0.865672
-1.840268
2.053061
-1.431385
-1.966902
-1.001719
1.404478
-1.650644
-1.132298
-0.227378
-0.797298
1.623667
0.315731
0.345129
-0.527849
1.231496
-0.011224
-0.272190
1.381013
1.310901
1.150486
0.557470
-1.499019
-1.291617
-1.596420
-1.064640
-0.808710
0.440879
0.989794
-1.236674
-0.438057
0.837730
0.302725
-1.053571
0.332143
-2.371709
-1.261429
-0.831861
0.828626
-0.519059
0.320526
-0.894317
-0.058003
-0.623944
-1.053997
-0.377288
0.765307
1.179758
-1.741523
0.501945
-1.740360
-0.819202
1.809957
0.120498
-0.461963
0.589365
-2.228599
-0.615800
0.305476
-1.373391
-0.282060
1.207394
-0.498156
0.817313
-0.488924
-1.094028
0.140085
0.680080
-0.619429
-2.195919
0.536901
0.154420
-0.570482
-0.119566
2.129376
-1.224208
0.586745
0.400073
0.973884
0.482908
1.807777
0.926553
0.025222
0.511301
0.968624
-0.974835
1.158206
0.310814
0.471110
0.986170
0.824845
1.329010
0.489443
-2.111668
-1.251070
1.163042
-0.166473
1.066464
-0.218271
0.408495
1.174138
-0.293181
-0.087455
0.242119
2.514936
1.831258
-1.190969
0.755538
0.136140
0.621323
-0.357912
-0.528984
-0.158911
0.202272
0.313764
-0.314740
1.640947
1.363501
0.474349
0.935938
0.972686
-0.284102
-0.769655
0.335073
-0.758515
2.148627
-0.460014
0.073119
0.943553
-0.394891
1.467559
-1.174251
-0.662044
0.114990
-0.865930
0.960027
-1.275759
-0.226214
2.752764
-0.507685
-0.153312
0.926287
-1.001363
0.636202
-1.765179
-0.141797
-0.031608
0.621600
-0.379187
0.479241
0.985640
1.898412
0.007506
1.314384
0.070018
2.157517
-1.032569
0.071582
0.283633
0.676833
-0.756628
-1.485399
1.142210
-0.374323
-0.501981
-0.342601
0.848847
1.308776
0.443128
-0.379699
-0.502443
-1.127598
0.721077
0.919942
0.872671
1.793038
-0.989678
-0.429614
-0.840685
-0.528230
0.691527
-1.115083
0.927212
-0.228462
-1.821867
0.914231
1.780610
-0.559762
0.454118
0.519907
-0.467441
0.749234
-0.745970
-0.531923
-0.785432
0.061706
1.453897
-0.398557
-0.327634
-1.420351
-0.302015
-0.509089
1.457824
-0.089384
-0.818261
-0.693531
-0.805358
-1.467625
0.598649
1.356188
-1.875216
0.990076
0.221329
-0.293361
-0.496113
0.319144
0.295730
0.755376
-1.180948
-1.547750
-0.654054
-1.104706
-0.492170
1.318639
0.760946
0.527837
0.477120
-0.168990
-1.392527
-1.297166
0.135781
-0.792015
0.550400
0.441970
1.348008
-0.028482
-0.888606
1.962632
-1.327025
-1.299248
0.420768
-0.219315
1.373523
0.708452
0.448739
-0.555953
0.642115
-1.421350
-0.437375
0.836574
-0.960064
0.278321
-0.952929
-0.328304
-0.584981
-0.372506
0.646884
-0.767360
-0.073461
-0.767129
0.610600
-1.004074
-0.236141
0.216991
-0.611801
0.676136
1.576602
-1.601895
-0.449360
0.156280
-0.435544
-0.080399
0.387739
0.832047
-0.498270
0.636428
0.664547
1.607059
-0.702829
-0.716312
0.685566
-0.142865
0.012063
-0.426746
0.990276
-0.340178
0.476833
1.280080
1.108554
-1.503606
1.271140
1.354625
0.845628
1.995107
-0.904805
-0.293563
-1.106999
-0.155510
1.143312
2.302711
1.011650
-0.042912
-0.222337
-0.677018
-0.301297
-0.599012
0.525709
0.552902
-0.182762
1.211038
1.380505
1.011536
-0.135080
1.341675
-0.406177
-1.264041
-0.058103
0.763081
0.339483
-2.345256
0.305018
-0.207979
1.902637
-0.417670
-0.652790
-1.590099
-0.947690
-0.604553
-0.594695
0.827305
-0.670224
1.597275
0.700419
0.898232
1.879510
1.089476
-1.472430
1.225307
-0.899459
-3.248446
-1.974343
0.322288
-1.630872
-1.454507
1.554261
-0.252404
-0.792942
1.275404
-0.584372
0.575801
0.964397
2.268514
-0.773443
-0.643640
0.489895
2.692621
0.627129
1.438073
-1.144489
0.177433
0.059067
-0.975960
0.434771
-1.539941
1.243647
-1.152659
-0.358558
0.803393
0.438753
-0.637434
-1.016008
1.691923
1.379555
2.115315
2.423901
-0.124551
0.185480
0.691652
-1.525668
1.176723
-1.299152
1.888868
1.640988
0.487494
-1.457623
-1.367260
-0.735400
-0.220095
-1.692871
1.719370
-0.326349
-0.726878
0.632278
1.829776
0.092319
1.077542
-0.991608
-0.062711
0.020738
0.206140
-0.724723
0.386320
-0.705240
-0.040036
0.819118
-0.107574
1.113183
-0.187820
0.005476
0.055219
0.558396
-1.052410
0.109843
0.036276
-1.217094
-0.151429
-0.427361
-0.711683
0.075437
0.364235
-1.789786
-0.273950
-2.349241
-1.349915
-0.292457
0.355311
1.375924
-0.611712
0.555543
1.010573
0.948178
1.145815
-0.913122
-0.512351
0.520190
0.232381
-0.425597
-0.428038
0.591518
-1.061410
0.204152
2.037196
-0.372033
-1.988921
-0.630081
-0.277823
-0.157582
1.063692
0.407964
-0.945075
-1.103758
0.599908
0.880431
-1.999089
0.097792
0.852508
-0.051389
-1.299093
1.301954
2.211257
1.631487
-0.181910
-0.985762
-0.504670
-2.373420
0.257316
0.974396
-0.113383
-0.475144
0.653841
0.723182
0.498180
1.689214
-0.624212
0.687647
-2.461035
-0.893226
0.055895
1.361101
-0.464645
-0.893360
-1.093613
0.575320
-0.706257
1.518121
1.260413
-0.907947
-0.453456
-0.188539
-1.328354
-1.239853
0.121867
-0.155420
0.727639
0.284984
0.038196
-0.404700
-0.874766
-1.039155
-1.361643
-0.486125
-0.921499
1.515257
-1.290629
-0.455669
0.100840
-0.586074
-0.229125
-0.613687
3.043475
-0.993464
-0.852236
1.941113
-0.742595
0.258818
-0.103196
-1.014151
-0.456864
-0.663312
0.676766
-0.269489
-0.437595
-1.550870
-0.377108
0.396989
-1.753213
0.647330
1.915439
0.360613
0.231291
0.428912
0.583637
-0.729303
-1.393227
1.045788
-0.854006
1.913633
-0.964353
-0.945203
-0.086070
0.280373
-0.245465
0.770762
0.006005
-0.303219
0.577933
0.235227
0.063899
1.261173
0.168003
-2.323271
0.343880
0.499303
-1.397925
0.117262
0.939697
0.046236
-0.069312
0.751389
0.977426
-0.001737
-1.762008
1.099878
0.829298
0.144102
0.337754
-0.586045
0.850931
0.883225
-0.038959
-0.789685
1.593479
0.239850
-1.437836
-1.387818
-0.745469
-0.599913
0.696510
-1.271979
1.229560
-2.722794
1.278899
1.620080
1.036109
0.749401
-2.199716
0.655791
0.743468
-2.237962
-1.122501
0.811086
-1.025585
0.636229
-1.129665
-1.572515
-0.653677
-1.295191
-1.023247
0.237439
0.098469
0.244054
0.168757
-0.121140
-0.600371
0.437152
-0.496826
0.018660
-0.089348
-0.776432
0.081861
-2.091324
1.013518
-2.421455
-0.412286
1.342061
-2.073583
0.148803
0.329769
-0.152438
0.027951
-0.778116
-1.500982
0.424451
1.588179
-1.679018
0.394035
1.118672
-0.528639
-0.805092
-0.611703
1.793643
-1.035728
-0.785707
0.054566
-2.287274
-0.567907
-0.015777
-0.938269
-0.334063
-0.432286
-1.971945
-0.828516
-0.798022
-1.967990
0.664520
-1.723619
-1.131888
0.164732
-0.104850
4.163104
-0.385283
0.211970
-0.576163
-0.498415
-1.532277
-1.402765
-0.729725
-0.512800
-0.422651
0.591879
0.174210
0.235365
0.405583
-1.758012
0.126474
1.810602
-2.193040
-0.200087
-0.262139
1.070409
0.080044
0.535924
1.290613
0.369295
-0.522516
-0.105025
-1.076136
0.132183
0.446143
0.071025
-1.038185
0.642984
1.234393
0.238388
-1.028878
-1.098850
-1.773823
0.888391
-0.844424
0.043623
0.589211
0.998170
-1.313989
0.420891
-0.483459
-0.431000
-0.874261
-0.633476
0.367050
0.289290
-0.485533
-0.652547
0.104754
1.604412
0.987903
-0.290490
0.975843
-1.688309
0.709447
1.054247
0.393123
1.050232
-0.534439
1.387978
-1.649338
1.758855
-0.104299
1.414324
0.949845
0.577779
-1.800881
0.446861
-0.739868
2.506174
-0.160575
0.904644
-0.251877
-1.681279
0.132049
-0.865039
1.153607
1.232195
0.782287
1.258431
-0.710049
0.810984
0.995793
-0.892295
-0.245298
-1.867829
-0.291831
0.458543
0.807994
1.108927
-2.000212
-2.446240
0.032243
-1.469605
-0.649516
-1.487811
0.727972
0.730212
-0.248502
1.505128
1.839770
-1.097579
1.288557
0.783223
-0.535543
0.774394
-0.606042
0.531384
0.264121
-0.348851
1.169905
-0.257454
0.520411
0.156239
0.632100
-0.098716
-0.503263
1.223354
0.684266
-0.527104
0.199972
0.175704
1.661331
0.079539
-0.446728
-1.337954
-0.287701
-0.815690
1.160545
-0.404961
-0.329709
1.257074
0.579180
0.817267
-2.319571
-1.133176
1.685287
1.511570
-0.941516
0.319407
0.307744
0.685455
-1.141715
-0.744769
1.914783
-0.514233
-0.650040
-0.442846
0.776045
1.601507
-0.476129
0.213294
-0.235724
0.301282
0.707295
-0.861350
0.985059
0.882584
-0.581672
-0.623001
-0.754809
0.699686
-1.605454
-0.558739
0.928996
0.489196
0.139918
-0.512109
-0.679817
2.150254
0.321685
-0.557690
-0.049785
-0.275576
-0.942702
0.090479
-0.902251
1.971658
1.124934
-1.451362
0.780487
-2.172053
-0.049370
0.031524
-0.126534
-1.345124
-0.461934
0.967861
0.993702
-0.369762
-0.693949
0.898514
0.580906
0.900784
-1.244451
-0.341166
1.424004
2.506501
1.308903
-0.865847
-0.403750
-0.552928
0.515722
0.482536
1.007030
-0.270953
-0.463859
0.102929
-0.078853
1.637214
-0.751386
0.515684
-0.364308
0.727721
-0.878979
0.446452
0.520572
-0.271544
0.062246
-0.324302
-1.406747
0.331924
0.075178
-0.429934
-1.001989
0.411456
-0.192977
-0.432863
-1.905201
1.077460
0.912757
-0.757788
-1.469751
-0.937883
0.279480
-0.087068
1.488380
0.920017
-0.966363
-0.428999
2.750282
0.672613
1.080108
1.122575
-0.183104
1.368706
-0.719337
0.502238
1.351882
-0.262690
0.105798
0.721711
1.892267
1.677348
0.027891
-1.001790
-1.200145
-2.641239
2.269510
1.198578
0.458192
-0.713839
-2.124662
0.349369
-0.443125
0.083297
0.196415
0.311852
-2.598849
0.227899
-1.237230
-0.134882
-0.900543
0.528790
0.742956
0.565017
-0.976130
-1.232348
0.998162
0.463428
-1.574432
-2.033127
-0.666440
-0.103633
1.546980
-1.252793
-1.465505
0.090669
0.878207
1.105968
-2.285879
0.228963
-1.066309
0.006512
1.270143
-0.342279
0.040731
-0.472906
0.339629
-0.560079
0.792328
2.105621
1.875118
0.097751
1.803054
0.098673
-0.143935
0.545525
-1.141974
0.470928
-1.931301
-0.111001
1.134535
1.058632
-0.033337
1.196024
-0.523973
0.490892
-1.539593
-0.290413
0.024991
-0.430090
-0.364546
0.841506
1.970381
-0.465842
0.385556
-1.244962
1.085626
-0.483181
-0.607633
-0.104271
-0.041900
0.040010
-0.463507
0.272847
0.491974
0.573695
-0.212310
0.046327
2.142920
0.797365
-1.782135
0.765393
1.080319
0.521179
0.900195
0.894784
-0.772979
0.389503
-0.800051
1.106481
0.980835
0.177349
0.515537
-1.279475
0.486246
-0.333029
-0.223737
-0.747966
1.286129
0.396553
1.601238
-1.193763
0.054322
0.284302
-0.090164
0.246674
-0.400668
0.584623
-1.227530
-0.098128
0.393922
0.680034
-0.580929
0.536610
-0.996029
0.592098
-1.309145
1.273913
-0.923772
-1.143853
0.693519
-1.161709
0.940655
-1.315515
-1.172012
-0.424147
-0.875860
0.868089
-0.434018
0.030591
-0.135621
-1.814966
0.946167
0.213712
0.870594
-0.363811
-1.053552
-0.722395
1.344278
0.042594
0.233096
-1.490837
-0.503466
-0.489427
0.787137
0.289275
-1.808758
-0.041589
-0.378373
-0.921306
0.570713
-0.933997
-1.289976
-0.702904
0.603436
-1.734759
-1.558356
-1.212463
-0.407764
0.709559
-0.240305
0.561354
0.796190
1.211117
1.448504
0.078963
-0.595368
0.956073
-1.783351
0.785397
-0.974533
0.608114
0.653480
-2.742970
0.476018
-1.951264
0.036324
0.156435
2.182068
0.411682
-1.174615
0.484654
-0.824087
-0.539180
0.755212
-0.099404
-0.303558
-1.052754
-0.250193
0.306440
0.738082
0.627310
0.177248
0.201592
0.759077
-1.838901
-0.763328
0.189375
-0.137030
0.107190
1.541818
-0.522638
1.156622
-1.277643
3.560125
1.991901
-1.695162
-0.343125
-1.124990
-2.258763
-1.304703
-0.071081
0.169241
1.983161
0.195863
0.824158
1.484571
-0.608056
0.409375
-0.105840
0.639512
0.620504
-0.553874
1.293984
-0.922449
-0.381484
-0.358762
-0.228395
1.050082
1.003687
0.159943
-0.826478
0.142608
0.701388
-0.691536
0.121401
-0.776681
-1.423299
-0.849396
-0.789990
-0.662813
-0.408218
0.129318
-0.415631
1.831054
0.926823
-2.117649
0.501662
-0.055662
1.181994
-0.968128
0.250874
-1.005652
-0.175837
-1.007156
-0.284528
-0.886171
1.821610
-1.169480
0.838387
2.576520
-0.979787
-0.620992
0.556572
-0.581904
-0.449621
1.258723
1.671936
-0.927710
-0.033215
-0.066854
-0.200080
0.701314
-0.141212
-0.893899
-0.822055
1.302665
-0.403434
0.260259
-1.074152
1.256590
0.373850
0.182811
2.006592
0.505167
1.027940
-2.140452
0.942930
-0.734460
0.612367
0.168115
-1.049541
1.732843
0.620963
-1.474416
0.671938
-0.418294
0.295359
-0.531036
-0.138081
0.446481
-0.509091
-1.290161
-0.905647
-0.450459
0.556321
0.024127
-1.096930
-0.889850
-1.052562
-0.595672
-0.329338
-1.177139
0.035610
0.278721
0.603905
-1.040485
-0.727500
-0.964681
0.470419
0.628879
-0.952134
-0.569743
-0.673349
0.078916
0.076600
-0.893101
-1.422206
-1.427343
-0.101798
1.249862
1.088959
-0.304870
0.441461
-0.859080
0.583791
-0.496978
0.156210
0.690034
0.110827
-1.397118
-1.100801
-1.293990
0.159876
0.432256
-1.017674
0.491772
0.180183
-0.248416
-1.341353
-1.104816
-0.010591
-2.139474
-0.029719
-1.524597
-1.342926
1.406387
0.803270
-2.703263
0.187860
1.626477
-1.120779
2.221889
0.680712
-0.518713
-2.314063
-0.774772
0.872340
-0.131632
0.088674
0.772938
1.896559
-0.271080
0.561449
1.793215
-0.215088
-0.607634
0.171904
1.560741
0.909231
0.176920
-0.002324
0.445300
1.456761
-0.331853
-1.905921
-0.091308
0.491371
-0.419992
-0.505570
1.062510
-0.422330
-1.242911
0.370831
1.262921
0.316542
-0.048788
-0.663474
-0.533123
1.370589
-1.859163
-0.703203
0.528714
-0.261538
0.104276
-1.918944
-1.052101
0.347636
0.002370
0.360955
-0.022753
0.938122
0.121682
-1.201017
-0.162791
0.368820
-0.904128
-1.412220
1.972502
-0.676035
2.146997
-1.364597
0.024849
0.657124
-2.331954
0.083269
0.393419
1.918710
-0.548753
-0.096774
0.091605
0.523692
1.062664
1.387287
0.169525
-0.555148
-1.272240
0.090878
1.377785
-0.709629
1.314855
1.183056
0.331040
-0.531324
0.679257
0.156352
-1.857691
1.072007
-0.590586
0.787841
0.140520
0.885345
-0.027012
-0.633912
0.139122
-0.169542
-0.123337
-0.002881
1.876101
-1.458832
-0.248914
0.559077
-1.344219
0.554861
-1.529553
-0.629695
-1.425715
-0.145132
1.521972
-1.255132
0.039268
0.219933
-0.416093
-1.521053
-1.015553
0.678278
-1.110413
-0.061908
-1.045826
0.701354
-0.681541
-0.418304
1.822385
0.673874
0.983955
0.975412
-0.700159
0.828453
-0.385395
-0.438001
0.777073
-1.456225
-1.795507
1.034121
-0.134063
0.430280
-1.176794
-0.024033
0.158492
-1.748431
1.066962
0.228993
0.201061
-0.086784
0.215695
-0.145827
0.353503
-0.228298
-0.296647
-0.860647
-0.366441
0.011122
-1.739511
-0.880293
0.617106
-1.628388
1.169851
0.052097
-0.970244
0.373400
0.900897
1.447704
0.674685
-1.452441
0.025700
-0.438549
-0.118824
0.410450
0.084716
0.734783
0.544604
1.612183
-1.341863
-0.188664
0.509355
-0.616773
1.784405
2.100221
1.592501
-0.119267
-0.015137
0.477212
0.477722
0.557346
0.970054
-0.363056
1.356070
-0.809393
-1.348931
1.186397
-1.220898
-0.722277
0.263290
-0.307718
-0.741691
-0.286103
-1.569917
0.132767
-1.444741
0.074863
0.391843
0.001186
3.392095
0.301983
-1.300313
-1.408308
-1.193913
-0.925588
-0.930736
2.179493
-0.001563
0.204328
-0.214532
1.280170
-0.781933
0.463776
0.625601
0.159757
-1.131400
-0.406895
-0.941873
-0.992579
0.370552
-1.793906
0.254931
-0.868076
-0.423371
-0.367782
0.354731
-1.094450
-2.155462
0.902834
-1.107799
2.231453
1.108121
0.915566
-0.797413
-0.432666
0.321143
0.089512
-1.003488
0.273772
-0.924319
0.320049
0.084541
-0.371710
-0.149552
0.059882
-1.400750
0.528431
-0.463527
0.427592
-0.400942
-0.186587
-0.055522
-1.240129
0.573049
0.978313
-1.152207
-0.023388
0.897264
0.064135
-1.492556
-0.361609
-1.639868
-0.191164
-0.564324
0.624401
0.950146
-1.307605
-0.647148
-0.687308
-0.607005
-0.271539
0.621122
-0.979768
-1.701554
-0.032687
0.664877
0.028880
-0.318774
-0.571845
-1.357863
0.301703
0.334488
1.059754
1.347960
1.351143
-0.299766
-0.195210
0.586594
-0.408034
1.029159
-2.800506
-0.381940
2.540978
-0.720621
-0.517284
0.154686
1.067990
1.964690
0.067121
1.516790
0.954473
-0.312933
-1.259750
-0.231564
-1.068927
-0.822216
-1.887059
-0.417910
1.953522
1.008064
-1.439262
1.397987
-0.598275
-2.555879
-0.848931
0.900755
1.949611
-0.114706
-0.734654
2.343500
-0.783230
-0.502885
2.346210
0.051005
-1.199669
0.359782
-0.051794
-0.025001
0.164806
0.542091
1.012024
-1.395986
0.163822
1.003747
-0.698944
1.071176
-0.917693
-0.150949
-2.084988
-0.449106
-0.052464
1.257126
1.278815
0.795437
-0.719176
-2.588856
1.273679
-1.204993
0.096944
1.068498
1.725604
0.201878
-0.214940
0.193853
0.782323
-0.923070
0.637208
-0.020487
-0.736199
1.496997
-0.897839
-0.297954
1.127463
0.414737
-0.256724
-0.653660
-0.530648
0.246647
1.315154
-0.817604
2.912631
0.040913
-0.576451
0.452846
1.368003
-2.571606
0.295917
-1.371799
-0.615685
1.245688
-0.315829
-0.165016
0.392041
-1.997983
0.527698
0.283033
0.770602
-2.235552
0.522213
-0.550642
-0.435268
0.518841
-1.339199
0.363743
-1.469411
-0.330652
-1.258057
0.475910
-1.130196
0.706647
1.009066
1.262760
0.149930
2.123444
-0.541245
-0.266486
0.659349
0.488646
0.074047
0.092079
0.464172
-0.216140
0.064288
2.979917
-0.174482
-0.843781
1.001639
-0.054155
-2.440040
-1.807394
-0.527989
1.116792
-0.801299
-0.044352
0.300408
-0.138988
1.082973
-2.606033
-1.133594
1.304360
-1.168567
0.040166
-0.370903
-0.829366
-1.675608
-0.023217
1.510858
-1.835355
0.353013
1.096025
0.166894
-1.490496
-1.130908
1.029386
0.222305
-0.779641
0.229726
0.469509
-0.392424
-1.219253
1.306746
-0.725884
0.735485
1.831075
2.065494
-0.586367
-0.265525
-1.376417
0.254644
0.686986
-0.161561
-0.015950
-1.112530
-0.264553
-0.771576
1.522742
0.448804
1.480141
-1.039802
-0.140790
-0.964926
0.097143
0.781706
0.195281
0.374830
1.242265
1.036244
0.633551
-0.426245
0.316804
-0.401540
-0.104899
-1.033693
0.031417
1.662810
0.005761
-0.241958
-0.195202
0.043774
-0.509042
-1.691315
-0.236103
-2.815622
0.537206
0.152082
0.364283
-2.780312
-0.743395
-0.173095
-0.787661
-1.374063
-0.680473
-1.345386
-0.153411
0.174234
-0.920370
-0.040310
-0.671631
-1.450438
0.447970
-1.233309
-1.377846
2.248902
-0.435858
-1.082015
-0.716556
-0.276748
1.907696
-0.349807
-1.066541
0.484050
-0.453785
0.622712
0.029101
-0.210118
-1.691873
-0.301335
-2.893182
0.678420
0.722884
-0.224597
2.249260
0.471176
-0.186228
-0.553034
1.184304
0.141451
0.544362
-0.059742
1.133272
-0.138639
-0.287106
-0.774336
1.238642
0.799034
-1.319680
0.758012
-0.374846
2.511495
-0.053540
1.646410
-0.287671
0.567016
0.175565
-0.952055
0.423580
-0.700233
1.500685
-0.270557
0.382028
0.614552
-0.709685
1.641722
0.457363
0.469695
0.086888
1.221390
1.528749
-1.732352
1.647682
-0.406508
-0.886493
0.929007
-0.707840
1.773393
1.134193
-0.284728
0.327853
0.693160
-1.629052
-0.674792
-0.390003
0.569375
1.013856
1.267791
-0.315871
-0.051597
-0.377243
2.398293
-0.788220
-0.368017
-2.532410
0.411346
-0.634537
-2.663863
-0.629151
1.097970
2.098963
1.093405
-0.279914
1.259102
-1.003417
-1.904566
-0.068398
0.050802
-2.828692
-1.853089
2.595868
-0.962511
-1.058745
-1.531330
0.682493
-1.296951
-0.673038
-0.101438
1.421958
1.717991
0.545168
0.516437
-1.360786
-0.446994
-0.226775
-0.505973
0.534719
1.349607
0.988169
0.139440
1.534789
0.369242
-1.244321
0.603206
-0.429456
-1.422235
-0.964498
-0.001361
-0.397695
1.609062
0.291904
-0.404815
0.242377
-1.271818
-1.710298
0.290325
0.247042
-1.106714
0.031520
0.107572
0.417703
-0.566472
0.029044
1.099836
0.535635
-0.101064
0.356407
-0.463984
0.180911
-1.163630
0.397783
-0.229717
-0.468867
1.432455
-0.098713
-0.890025
1.609793
-0.512409
1.161715
0.590032
1.120246
1.522830
0.442534
-1.806955
0.780036
-0.823266
1.109241
-0.443778
-0.533446
-0.576805
0.699232
0.287535
-1.537170
0.907013
-0.943596
1.196315
-0.195260
1.534300
0.560760
-0.510767
-0.447522
0.711909
0.393871
0.305629
1.039157
0.661174
-0.837116
0.772086
0.359387
1.446195
0.764050
0.413027
0.826915
-0.163356
0.092081
-0.331578
1.286048
-0.016587
0.465162
-1.641911
1.522246
0.019816
0.004421
-0.084978
0.874972
-1.426994
-0.366920
1.282255
2.000452
0.510751
-2.245220
0.025310
0.013931
0.657325
1.063394
-1.483992
-2.652580
-0.860413
-0.628831
0.040789
0.388334
-0.677170
-0.655979
-0.408202
0.748343
0.674478
-0.163172
1.183054
-1.037777
0.662168
-0.554588
-2.028180
1.337899
0.313944
0.118118
0.017460
-0.205879
-0.765633
-1.321345
1.253208
-1.407410
-0.298219
1.253556
-0.366270
-0.902687
1.971817
-0.032147
-0.066864
-0.626548
-1.256033
0.126549
-1.927252
-0.542823
-1.055837
0.661717
-0.495668
0.169132
1.426148
-2.212866
-0.842468
-0.576779
-0.790098
0.144998
0.973828
0.407577
0.255397
0.537133
-0.289711
-0.491181
-0.634596
0.752722
0.594173
0.451818
0.423646
-0.177642
-0.992334
0.125150
0.223688
-0.737615
0.696031
0.949138
-1.752743
1.039666
0.228588
0.598778
-1.003114
-1.325594
2.159909
0.637800
1.775255
-0.276679
1.366881
-0.267634
-1.743121
-2.063702
-1.568111
-0.615075
1.097048
-0.857609
0.385779
-0.508808
0.400060
0.328862
-0.125588
-2.217083
0.815521
1.434185
-0.751203
0.188030
-1.200099
0.186651
-0.168264
-1.331992
-0.551196
0.095340
-0.843082
-0.887581
-0.969918
-0.944329
-1.028084
0.647525
-0.170952
0.192143
-1.539929
1.032729
-1.681591
-0.394174
1.946687
2.647645
-1.122517
0.654966
-0.693681
-1.041484
2.143713
0.137704
0.843625
-0.894856
-1.029657
0.171879
1.440053
0.329015
-0.322275
0.253723
1.422705
-0.660060
0.842152
0.878937
-0.532410
2.212878
-1.044889
0.020260
1.105628
-0.258117
0.474560
0.699235
0.720605
-0.658890
0.536467
-0.100382
0.315866
0.875022
-1.060439
0.353402
1.149577
-1.099153
0.123969
-2.436440
0.057466
-1.343166
-0.478819
1.295653
-0.232046
1.094847
0.200459
-0.908180
-1.182403
0.398133
0.851922
0.950477
1.073631
-1.824440
-0.505701
-0.085349
0.994415
-0.005157
-0.902544
1.207491
-1.193208
-0.658050
1.533783
-0.659734
0.193915
1.515998
0.146391
0.160347
-1.393456
0.002129
-0.906462
-0.562148
0.088371
-2.786998
1.024870
-1.283496
-0.224049
0.201311
-0.742658
0.602010
2.483530
1.516564
-1.101548
0.656084
-2.209813
0.160634
-0.340570
1.028059
0.050344
-2.153435
0.096586
0.070643
-0.669889
0.656763
-0.739132
1.069382
0.312304
-0.746613
-0.675243
2.017656
-0.701397
-0.316415
-1.608331
0.491090
0.746661
-1.750829
0.055110
-0.166192
-1.599722
0.950576
0.497779
1.759495
-1.637029
2.510940
-0.697819
-0.721705
0.313169
1.449847
1.030023
1.057627
-0.835491
0.766297
0.429413
1.130133
-0.872249
-0.989812
-0.955489
-1.260593
1.323242
-0.184318
0.051270
-0.036414
-1.072393
-1.345649
1.147667
-0.921974
-1.431082
0.240099
-1.131022
0.603808
0.545873
-1.198650
1.763025
-0.864030
0.863549
2.058726
-0.472195
-0.774180
0.013762
-0.075265
1.142225
0.841600
-0.458115
-2.132377
0.596870
-0.476738
-1.414577
0.930613
0.309883
-0.765702
0.440082
1.303897
-0.412707
-0.517657
0.484599
1.007208
-1.621406
-0.644567
0.101977
0.989712
0.054798
0.873879
1.011123
-0.862880
0.029410
0.515805
0.667861
0.646933
-0.061930
-2.374116
0.157249
-0.223448
-1.011788
-0.156626
0.879137
-0.356938
-1.690267
1.569789
-0.019626
0.501509
-0.572413
0.095498
1.385586
0.710311
-1.282258
0.339251
-1.360427
0.637365
1.412992
0.894367
0.034536
0.718009
0.430056
-0.438033
2.253538
0.386898
-0.627961
-1.556105
0.152119
-0.639981
-0.249242
-1.357944
-0.052684
-2.220988
-0.253412
-1.770865
0.969875
-1.287672
-0.013994
-0.033546
-0.512692
-0.386373
0.502332
-1.969512
0.384812
0.429721
0.578836
1.224810
-0.693233
0.416735
1.908981
-2.040262
1.173781
-1.550674
-0.436542
2.676691
0.796478
-0.982352
0.858888
0.829076
-1.391342
-0.099679
-1.383019
0.278691
0.551155
1.388036
1.834287
-0.783311
-0.436050
-2.034167
1.269681
-0.425475
0.771182
-1.325657
1.300593
0.410614
1.230104
0.582251
-1.022596
0.474172
0.651355
-1.642141
-0.117374
-1.050676
0.285546
0.025179
-0.728799
0.655962
0.045370
0.205256
-0.763714
0.619418
-0.557481
0.719761
-0.940194
-0.355239
-2.481455
-0.046126
0.169716
-1.750539
0.055987
1.065164
-0.280802
-0.126375
-0.143079
0.531786
0.761704
0.283815
0.005428
0.302852
0.576707
-0.600572
-0.817321
-0.311327
0.512535
-0.471872
-1.127861
1.133365
-0.339332
0.496900
0.082544
0.319839
0.595700
1.449260
-1.582629
-0.807940
0.922982
-0.343515
0.232317
1.249823
-1.921539
-1.405067
-0.952167
-0.023804
-0.132783
-1.028074
-0.387397
-0.161274
-0.955668
-0.627045
0.895587
-0.911104
0.513182
0.071589
1.070194
-0.986181
-0.602795
1.881333
-0.193050
-0.162768
-0.183815
0.742599
0.724084
1.502849
-0.554107
-0.527669
-1.228279
-1.283979
1.368747
-0.622533
-0.331695
-2.314924
0.524268
-1.252626
-0.537411
-1.516907
-0.419254
0.095430
1.723720
0.960722
2.198517
0.731617
-0.069827
0.578846
-0.282166
1.116635
-0.197775
-0.578377
-0.910246
0.488427
0.464491
0.465858
-1.284769
-1.859145
-1.159356
1.154661
-0.811458
0.984160
-0.489219
0.585113
-0.851548
-0.511343
0.250732
1.672794
1.513040
-0.347880
-0.043997
-0.199505
1.466413
-0.016916
-1.866774
0.567978
0.182375
1.387047
0.348263
-0.775079
0.007778
-1.409190
-0.914564
0.944148
-0.138684
0.175686
0.441030
0.725239
0.719471
-1.157169
-1.344634
-0.902383
0.482460
2.264933
-0.435698
-0.482298
-0.752872
0.560526
-0.042606
0.191935
-2.038969
1.358075
-0.007352
1.145062
0.166723
-1.232119
1.339744
-0.360560
0.159115
-0.168044
-1.153078
1.764246
-2.286434
1.504947
1.812770
-1.966856
-0.043243
-0.023484
0.109484
-1.630846
0.803849
-0.146480
-0.747101
0.777418
0.986497
0.677773
0.476580
1.620176
1.384145
0.474461
1.575963
-0.629031
-1.479397
-1.762389
1.680314
0.803948
-0.664840
-0.509802
0.551978
-1.515800
-0.621217
-0.024437
-0.850286
0.167223
1.326138
0.307477
-0.484135
0.036661
-1.086580
-1.332574
-0.673097
-1.484914
-1.477299
-0.494961
-0.529460
-0.138256
1.790286
2.725909
1.132009
1.989571
0.713101
0.349736
2.125265
1.228674
-0.595081
-0.574048
0.289845
-0.642769
0.631609
-0.459081
0.628084
0.698761
0.074500
0.550038
-0.880333
0.306655
-0.532860
-0.197761
-1.101710
0.614999
-0.035589
1.212589
0.496596
-0.056886
0.226393
0.622458
-0.272827
0.071300
-0.586506
-0.280441
0.384506
-0.297336
-1.137040
-0.653013
-0.062629
-1.243599
0.629788
0.718063
-0.379814
0.377898
-0.434798
-0.644381
-0.450847
-0.402472
-2.577864
-0.465192
-1.343371
-1.709998
-1.305889
-0.765891
-1.544980
-0.086424
1.720733
0.416080
1.281769
-0.794822
-0.566959
0.841627
0.625644
1.558503
-0.031577
-0.263414
-0.933291
-0.254236
-0.772883
0.365643
1.022235
0.722246
-0.154373
-0.082121
0.055614
1.551476
0.280558
2.289411
0.604475
-0.655069
0.378953
0.243713
1.241647
-0.484872
-0.971191
-1.386171
0.448879
-0.712631
-0.748769
0.390492
-0.450640
1.392239
1.169284
1.244265
0.719183
-0.624307
0.622514
-0.135521
0.067895
-0.605090
-0.708295
-0.070370
2.165311
-0.096259
-0.637080
0.903948
0.013251
-0.079274
-0.955242
0.247207
-0.310534
-1.615757
0.736661
1.670793
-0.075597
0.420795
-0.613653
1.286895
0.999601
-0.625580
3.029830
0.071945
-1.585268
-2.861730
-0.071519
-1.853651
0.561563
1.412359
-1.545154
0.303175
-0.324442
1.206098
-1.191381
-0.284310
0.825480
-0.428246
0.284485
-0.596112
-0.231091
1.020567
-1.053860
-0.154251
0.509526
0.660765
0.177408
-0.453901
-0.244445
-1.304946
-1.001595
-0.783680
-0.036087
0.190649
0.431924
-0.862480
0.757944
-2.755248
0.131801
0.389681
1.403173
0.386476
1.135466
-0.803615
-1.258532
-2.475829
0.200266
-0.677826
-0.647682
1.156683
-0.946851
0.515412
-0.732517
-2.873175
-0.947944
-0.454907
-0.024580
0.843548
0.054288
-0.442876
1.241662
0.180385
-1.387852
0.515053
-1.643476
0.559557
2.180465
0.058852
0.117249
0.188913
-1.157956
-0.864401
2.242201
-0.148265
0.273419
1.427710
-0.861818
1.560742
0.747725
0.215621
0.261972
1.468930
-1.003532
1.717063
-1.077083
-0.471859
-0.160090
0.592893
-0.038034
-1.123114
-0.152360
-0.916311
1.967658
-0.040304
-0.491120
-1.244893
1.234839
-1.035088
-1.528599
0.957728
0.390309
0.850930
1.868459
-1.001740
1.560303
0.771993
-2.186620
-0.154794
0.530775
-1.687540
-0.874658
-0.289187
0.997333
0.656211
-0.647574
-0.155148
1.081539
-0.259213
-0.970345
-0.349191
-0.708360
-1.184786
-0.974981
1.157407
-0.262418
-0.449909
0.067709
-0.564026
0.250644
-0.950072
1.057365
0.218847
-0.030897
-0.975119
-0.046200
0.196537
0.863497
1.346674
-0.231773
0.377737
-1.800163
0.634545
-1.081803
-0.083389
1.384119
0.890978
0.348914
-0.857890
0.022047
1.164671
-0.200528
1.224299
-0.838951
0.542638
-0.405421
0.986314
-0.902631
0.971726
0.588017
0.239450
-1.321691
-0.718302
0.407165
1.799395
-1.637260
0.953570
0.815087
-0.666598
0.376680
1.416760
0.603443
1.299495
-1.132502
-1.180025
0.698805
-0.192977
-1.260764
0.250160
0.377830
-1.363915
0.434656
1.862108
0.123703
-0.297335
0.090249
0.499863
0.717253
-1.317317
0.402687
0.360867
2.280186
0.133371
-0.894718
-0.504356
-0.319939
0.357287
0.281878
-0.180528
-0.408995
-1.457892
-0.021932
0.122868
-0.361635
-0.120784
-0.239066
0.979639
-0.543143
0.576504
-0.666200
-1.986221
1.260262
1.102551
-1.352991
-0.656174
-0.329475
-2.957067
-1.839624
1.318563
-0.092430
-0.007788
0.118124
-0.671968
0.085022
0.339066
-1.408358
1.899361
0.233936
-0.755314
-1.882189
-0.779917
-1.311790
0.704375
-0.113445
1.172918
-0.281621
-1.029510
-0.332875
1.755325
-0.775840
0.748223
-0.913370
-0.799471
1.095692
0.129706
-0.038627
-0.528106
0.189013
0.072464
0.200308
-1.094954
-0.608057
1.126869
0.127946
-0.389488
-2.079022
-0.356105
-1.388187
0.054608
1.249273
0.819053
0.691852
-0.766981
0.794032
-1.150958
0.296953
-0.072344
-0.108507
-1.890712
0.758728
0.257981
-2.077539
0.142586
1.905088
1.248976
-0.692210
-0.609527
-0.516220
0.592896
-1.336296
0.152420
0.309314
0.614389
-0.830793
0.529682
2.361075
-0.465637
0.223651
-0.080457
-1.970032
0.521997
0.343058
1.871413
0.010802
1.453611
3.043926
-0.274385
-0.788698
0.994127
0.517723
0.242345
1.039332
0.170032
0.387997
2.802566
0.439359
0.526254
0.902189
-0.024308
0.480986
-1.343383
-0.003845
-1.237620
-0.019733
-0.541770
1.510600
-1.310890
-0.751191
-0.009343
0.757054
0.484561
0.161141
1.084423
-1.879030
1.349255
0.039850
0.018706
0.218129
-1.237114
0.798799
1.115207
0.496938
0.600650
-0.074154
-0.022192
0.960187
1.131106
-0.870377
0.231629
1.247079
0.221899
0.873468
-1.323451
-0.409156
-0.514185
-1.356901
1.020656
-0.227621
1.449856
0.376839
2.085855
0.709534
2.314176
-2.294373
0.099328
-0.182608
-0.524885
1.299740
0.061943
-0.580801
0.203706
0.182673
0.223150
1.025422
-1.066021
-0.426800
0.433112
1.156049
1.285564
0.875084
-1.393341
-0.231458
0.283564
-0.531060
0.533754
0.619466
-1.730573
0.032567
-1.373272
1.038807
0.282769
0.974866
1.305575
-1.146773
1.111307
-1.055254
0.377021
-0.176994
-0.750190
0.206217
-0.618838
-0.012925
-0.293097
-1.476432
-1.724632
0.469877
-0.380384
-0.485319
0.863661
0.264596
0.578755
1.330703
-0.930228
-1.694162
0.237010
-0.408608
0.234292
-1.105865
-0.219594
-0.599689
0.056941
-0.595722
0.644819
0.165921
1.580246
-0.709597
-0.555950
-0.036791
-2.295196
-0.194280
1.027424
-1.501957
0.562128
1.200387
0.455278
0.021679
-1.177217
0.678871
-1.262550
0.391108
-0.290026
0.388070
-1.147791
0.010565
1.490480
0.304195
-1.447193
-0.446890
-1.323233
0.668660
0.265757
-0.815915
-1.592269
-0.030821
-0.222969
1.032761
0.033383
0.710464
0.196553
-0.503792
1.421316
0.165717
0.733082
-0.416737
0.520139
-1.480123
-0.774648
-1.522060
-0.377595
-0.760833
-0.044364
-1.504384
-0.017628
0.732466
-0.694192
0.380690
-0.384408
0.723052
-0.815605
0.049472
0.094853
0.918266
0.379711
-0.216227
-1.542970
0.747299
0.586171
-1.237815
0.700103
1.234955
-1.295263
1.920236
-1.485483
0.266513
-2.121604
0.968578
-0.305926
-0.395500
1.855471
-0.521129
0.413286
-0.703432
0.424268
0.670746
0.597760
-1.203135
0.645966
1.305236
-0.168744
-1.133680
-1.207794
1.580626
-0.616458
-1.544584
0.878361
-0.375155
0.912219
0.303128
-0.003643
-0.009653
-0.023229
-0.285219
-0.386836
0.843660
-1.894002
0.466143
0.752620
-0.516197
-0.113792
0.752498
-1.567314
-1.582986
-3.294001
-0.278193
-0.091050
-2.932139
-1.127668
0.735903
-0.149419
0.538987
-1.270663
-0.348278
-0.971889
-0.754967
0.333586
0.671537
0.428640
0.500564
0.009322
-0.188290
-1.438408
-0.799333
-0.941163
-0.473202
1.770237
0.023628
1.439523
1.399919
0.045011
-0.053003
1.681829
0.353109
-0.356867
-0.475355
-0.033526
1.622035
1.339352
2.350956
0.396804
0.128364
0.037240
1.295110
-0.249985
-0.147066
-0.478783
-0.511411
0.913434
-0.263417
0.533863
0.673586
-0.782561
-0.015244
-0.963606
1.127657
0.235985
-0.263230
-0.225729
-0.013642
-0.402245
0.830547
-0.723199
0.702744
1.469786
0.436912
1.248694
0.216617
0.245890
-0.813168
-0.970575
-1.023026
-0.860195
-0.182080
1.168075
-1.695612
-0.543472
-2.227658
1.507946
-0.128907
0.475680
-1.171928
0.548761
-1.307259
-0.440057
-0.117448
2.258135
0.954256
1.568779
-0.185841
-0.831559
-0.834180
-1.000466
-0.081657
-0.230059
0.463429
-2.620751
0.187780
-0.301124
-2.465531
1.079148
0.349577
0.211463
0.894074
-0.907246
0.936206
-0.670768
0.673689
0.381578
-0.100548
-0.408360
-0.127791
1.053380
-0.534478
0.826576
1.646305
0.689302
0.454758
-3.961860
0.845839
0.469822
0.224225
-0.804110
1.339571
0.197868
-0.935400
-0.132264
-0.298897
-1.451252
0.327157
-1.154586
-0.711854
0.827784
0.161549
-0.896507
0.482311
-0.275532
-0.953817
1.131031
0.839718
-0.156622
0.300899
2.102914
0.531486
-1.743349
1.782426
-0.947122
-0.208226
-0.133718
0.012465
0.295812
0.037716
0.772522
-0.803891
-0.733471
-0.093453
0.348030
-0.160980
1.214684
-1.004909
-0.035902
-0.210935
1.015265
0.065612
0.677826
0.034295
-1.077570
-1.816738
-0.819221
-0.569913
-2.268600
1.248197
-0.137294
0.104096
-1.125363
1.778223
-0.677310
-0.561684
0.772597
-0.778709
0.671773
0.128199
-0.344522
-0.440173
0.495524
-1.082673
1.136018
0.085202
1.413942
0.467893
1.827312
0.898604
0.380102
0.715209
0.150651
0.071629
0.645423
-1.047803
-0.533630
0.222393
1.810173
-0.420425
-0.776887
-0.530502
-2.346996
-0.377754
1.103889
0.056836
0.211557
-0.586528
-0.746029
0.404867
1.521071
-1.241912
0.110998
0.263331
1.407662
0.646042
-0.537130
-1.477680
0.348338
1.048642
-0.370098
1.537580
-0.337372
1.822104
-0.742784
0.160203
0.128900
-0.338414
0.271432
-0.169999
0.396940
-0.415463
0.838778
1.068760
1.843894
0.539011
-0.699942
0.034845
1.565715
-0.659161
0.137220
1.214187
-0.694508
-1.698830
2.281032
2.260461
-0.944048
0.283991
0.434564
-0.318118
1.268826
-0.008280
-1.424757
-0.976015
1.042269
-0.459695
-0.237646
-0.197364
-0.363595
-0.473898
1.310794
0.661288
-1.170482
1.299099
2.168010
-1.205087
1.263126
-1.256984
-1.949854
-1.638603
-2.281595
1.279188
1.397390
-0.485860
0.454640
-1.636326
-0.676061
-0.254487
-0.540477
2.131047
0.457303
-0.047851
0.357184
-0.291426
-0.419614
1.086766
2.172131
-0.023418
-1.677265
-0.872999
0.022418
-0.930530
2.065986
-0.270756
-0.314004
1.070019
1.360941
-0.032101
0.854533
0.115216
1.701461
1.514377
-0.842506
-1.148531
-1.352301
-0.071188
-1.419376
0.577482
0.445738
1.132287
-1.166837
-0.895868
1.614851
1.523175
-0.173708
-1.247535
0.049903
-0.354630
-0.902266
0.079738
0.629320
0.723400
-1.734853
0.165172
0.685922
-0.692207
2.571568
-1.952881
-0.006355
-1.730732
0.186417
0.820615
-0.413814
-0.192773
-0.927882
0.675733
-0.759944
-0.776720
0.145413
1.379182
0.798068
-0.263690
1.538129
1.206077
-1.528680
0.347132
-0.344207
-0.052729
-0.193396
0.565855
-0.083768
-1.186587
1.049087
0.279715
-0.102214
1.652438
-0.036654
-0.523098
0.314441
-0.421739
-0.761622
0.773219
-1.304922
0.965909
0.489232
0.565157
0.461380
0.005297
-0.253203
0.377759
0.808069
-0.182773
-1.217660
0.118021
-0.527792
-0.678559
-2.034897
-1.074092
-1.590294
-0.974668
-0.738063
-0.259440
-0.932728
-0.360104
0.392702
0.036570
0.311298
0.104287
0.275792
0.697814
-0.719524
0.479701
-0.800487
0.602400
-1.155629
-0.389171
-0.008014
0.202720
0.147713
0.680303
0.215039
-1.019572
-1.977023
-0.264524
0.327419
0.748216
-0.435944
-1.517131
0.943479
0.562052
0.758238
0.814612
1.015857
-0.218599
-1.237014
-0.433066
0.136122
-0.854974
0.060010
-0.393402
0.664017
0.036366
0.526796
-0.735627
1.154259
0.873399
-1.540737
-0.045939
1.266841
-1.079997
0.017565
-0.780146
-0.539177
0.217280
1.583899
0.145086
1.616963
0.630167
1.046028
-0.935108
-1.543421
-0.853075
0.464149
-0.033233
-1.843587
0.241990
-0.010814
0.385895
-0.413446
1.760806
1.325320
0.683526
-0.722026
-0.081441
1.861055
-0.101908
-0.486082
-1.526601
0.399258
-0.098500
0.688754
2.193329
0.666599
-0.907802
1.348664
1.364843
-0.993350
-0.230963
1.873333
-0.450552
1.923369
1.080462
-0.959814
1.196813
2.209435
-1.381388
2.874394
0.581398
-0.097308
0.896355
-1.241562
-1.356096
0.474562
-0.437130
1.147023
0.023024
2.171501
0.196857
-0.090062
-1.895769
-1.238068
-0.167656
-0.852627
0.242172
0.798746
-1.144275
1.847013
0.644148
-0.424124
0.407468
-0.088543
2.919755
-0.500090
-0.202070
-0.977448
0.212576
1.006533
-1.090274
0.584744
0.967409
-0.514789
0.886788
-0.742957
1.491219
0.466855
1.169186
0.185264
-1.754213
0.594638
-1.149251
1.858799
-0.627450
1.284776
-0.348529
-1.236259
0.390483
-2.527361
-0.780015
0.913946
1.113851
-0.561364
0.955721
-0.242584
0.628538
0.338811
0.740527
0.468123
0.112525
-0.517669
0.977887
-1.733014
-0.477518
1.267579
0.855839
0.974256
-1.508203
0.532404
-0.754005
-1.527794
-0.786268
0.908042
0.465811
1.349144
0.113712
0.289430
1.107580
-1.083241
2.394380
0.918925
-1.759775
-0.809893
0.304951
0.396707
0.808008
-1.052101
-0.429393
0.380089
-0.145800
0.154105
-0.185802
0.864218
0.476885
1.786754
1.043433
1.776750
1.285894
-1.382710
0.650669
-1.840928
-1.106077
-0.748526
0.544878
-0.157597
0.607181
0.158712
-0.852805
-1.310794
-0.570201
0.351677
-1.469921
-0.083414
-1.715154
0.443797
-0.419844
1.021563
-1.089684
0.274991
0.398606
0.367954
-2.569266
-1.389761
1.650857
0.978856
0.591293
-2.302845
0.932046
-0.718496
-0.058457
-0.031667
-0.899040
-0.365952
0.537095
0.227173
0.897181
-1.532414
1.123881
-0.906120
-0.878763
0.006670
0.531876
-0.782450
1.728787
-0.078951
-0.567729
0.852515
-0.581555
0.358536
0.496205
-0.104423
0.965171
0.463155
-0.172738
-1.370339
1.675859
0.112660
-0.981205
0.200551
2.293881
-0.063984
0.684747
0.657402
-0.597369
2.357620
-1.051347
-0.732857
-0.507519
0.213842
2.160078
-1.200782
-0.290291
0.473743
-0.934280
-0.461175
-1.093419
0.286705
0.422900
0.113698
-1.392345
1.384796
-1.779156
0.624921
0.290569
0.564565
-0.106049
1.803756
0.707258
-0.492849
-0.123534
-1.332526
0.707503
-0.165841
-0.495716
0.972461
-0.219406
0.976640
0.127165
0.386491
-1.466701
-0.746337
-1.288083
-1.435798
0.659267
-0.267151
1.318133
-2.252219
0.067605
-0.228496
0.251681
-0.812039
0.381793
0.149302
-1.397661
-0.452245
-0.437909
-1.342993
2.178741
-0.244722
-0.874870
-0.230813
1.534092
2.776257
-0.916728
0.912317
-1.097290
-1.044325
2.169148
1.021470
0.040976
1.422620
0.606404
-0.075995
-0.433430
0.230624
0.177056
-0.152566
1.591544
0.104364
-1.803880
0.505973
1.863089
-0.814768
0.673323
0.299379
0.479645
-0.211966
-1.881150
1.422346
-1.482581
-1.546976
1.069624
-0.643460
1.082157
0.039222
1.416452
-1.033594
-1.334283
-0.460139
1.130643
-0.528617
0.694939
0.721248
0.463260
-1.016198
0.155606
1.203026
2.323972
-0.364370
1.277992
0.634017
0.935203
0.946452
0.417246
-1.287914
-1.110262
-0.535697
-1.038136
0.358251
0.818084
-0.121124
-0.663084
-0.666751
2.568958
0.505107
0.193844
-0.798056
-0.042778
1.845013
-0.070992
-0.419181
-0.038193
0.139184
-1.687454
-0.464512
0.661363
0.570162
-1.256283
-2.114712
-0.131803
1.052474
-1.530381
-0.808479
0.251776
0.629218
0.586191
0.427501
-0.216556
-0.789297
0.785495
0.851552
0.560573
-1.531057
-0.294065
-0.103693
-0.312927
1.341698
0.539341
0.525757
-0.323616
0.584014
0.038351
-0.267926
0.146590
-0.011429
1.377478
0.343419
-0.635029
0.828940
0.188633
0.345837
2.766109
-0.330672
0.031717
-0.109123
-0.690417
1.888539
-1.275732
0.029259
-0.999223
0.799359
0.646054
0.887132
-0.403854
-0.775726
1.200799
-0.172608
-0.130432
0.168950
0.568587
-1.968103
0.436545
-0.994073
-1.054148
1.596072
-0.389123
1.026891
0.349870
-0.565315
-2.807562
0.346599
-0.227522
0.213427
-0.875275
1.228839
1.012253
0.214517
-2.084763
1.404580
-0.730946
-3.642381
0.762065
0.589063
-0.033590
-0.033395
-0.059692
0.988960
-0.339822
1.090174
-1.652648
0.302138
-1.034405
0.199906
0.494821
-0.052310
0.488782
0.777414
0.385786
-0.215593
-0.878271
-0.840586
0.172801
0.377715
0.097113
0.066713
2.286770
0.540735
0.307307
0.587596
0.664578
0.854722
0.912725
-0.017406
0.509138
-1.782238
-0.819025
-1.099174
0.034462
-1.434322
0.079522
-0.078556
2.396603
2.478319
-0.424236
0.883103
0.698066
-1.113074
0.999588
-1.630493
-0.708054
-0.259947
-1.254216
0.032266
1.163463
-1.157876
0.113141
0.419691
1.421040
0.059346
0.442493
-0.324072
-1.597354
-1.534568
-0.124017
0.445159
-1.642605
-0.629986
1.597625
0.611493
0.438606
-1.304992
0.550360
0.050114
0.529940
-1.813622
0.466260
0.033646
-2.133850
-0.820469
0.440371
-0.344920
-1.024697
0.646957
0.260159
-0.559201
0.534499
0.679685
1.421324
-0.028285
1.804213
0.359913
-0.914680
0.309438
-0.208530
0.132834
-0.616247
-0.438592
0.293120
-1.368204
0.501082
0.359171
-0.071732
0.174907
-0.010137
0.354490
1.389058
0.671833
0.167413
-0.966932
1.512259
0.892679
0.063282
-0.030274
0.484675
-0.520639
0.129497
-1.170630
1.046866
-0.539598
-0.439599
1.523625
-0.116615
1.006707
-1.107855
-0.485773
-1.121050
1.295619
-3.016249
-0.574942
1.668921
-1.444490
-0.087583
-0.239483
-1.910587
-0.068731
1.149377
1.209602
-0.397596
-0.912405
0.099853
-1.073821
-0.578713
-0.183533
0.506529
-0.832320
0.024815
-1.992113
1.433123
0.216899
1.085871
-0.509980
0.375129
0.542075
0.045197
-0.070029
1.313762
0.446242
-1.900933
-0.337703
0.604790
-1.136901
0.878454
2.261329
-0.418785
0.307073
0.856717
-1.216594
0.443826
-0.164257
2.437798
2.216038
-0.143116
0.700021
1.291192
-0.374510
-1.085914
0.833546
0.006068
-0.609555
1.010670
0.788466
0.849344
-0.643507
-0.669821
-0.393592
0.775244
0.490136
-0.193237
-0.685250
-1.308306
0.933042
-0.339475
-0.713580
2.580242
-0.277944
-1.144844
-0.473962
-0.883034
0.618030
0.782393
0.812225
-1.304590
-1.628933
0.061341
-0.339185
0.320859
-1.937078
0.016966
0.191794
0.224568
-0.518099
-2.090834
0.718749
0.207714
0.803503
-0.206055
-0.066985
0.624908
-2.294115
1.546939
-0.310082
0.395527
0.375533
1.566334
-0.854694
-1.470991
-2.628151
-1.459210
0.383811
-0.422321
-0.845626
-2.672946
0.627873
-1.162646
0.755039
-0.571351
-0.295256
-0.845019
-0.739498
1.263661
0.045865
0.236967
0.533328
-0.291368
-0.675058
0.598566
2.901592
0.800519
-1.024710
0.278699
1.010085
0.679478
-0.369379
-0.074547
-1.498056
-1.274594
-1.330588
-0.364411
0.305620
-0.766640
0.152010
0.405235
-0.136271
0.675264
-0.230785
-0.293591
-0.286037
-0.477269
-1.051402
-1.134119
-0.598002
0.005023
0.584924
-0.679762
-1.298628
-0.490554
-1.184550
0.609317
0.070658
-0.668195
0.044019
1.062974
1.382819
0.037532
0.476587
-0.515946
0.182837
0.516096
-0.502625
-0.410813
1.274499
-0.199595
-0.323967
-0.532188
0.426983
0.908871
-1.484077
0.191915
0.522227
-0.864545
1.144891
-0.593787
1.385229
-2.165331
0.605743
0.109473
0.051600
-0.213089
-1.205801
0.705761
1.157746
0.244235
0.616918
1.224222
-1.359147
-0.044015
1.308913
-0.034605
0.841056
1.297923
-1.559922
0.275591
-0.940920
-1.609226
0.576024
-0.930077
-0.035668
0.554623
0.619349
-0.412931
0.628463
2.403893
-0.870640
0.271890
-0.960441
-1.569218
-1.487714
-1.250653
0.806453
1.612344
1.119263
0.451524
0.300171
-0.426331
0.572625
0.009281
-1.405236
-0.393037
0.239169
0.297788
0.057165
-1.668794
-0.117594
1.472424
-0.749962
1.139825
-1.094855
-0.783322
0.189282
-0.453572
0.540542
-0.386909
0.151252
-1.354837
0.679627
-0.200844
1.778052
2.431343
-0.288012
0.492810
-0.089779
-1.276976
0.215248
-1.617541
-0.498772
-1.008518
-0.657845
0.659168
1.067926
-0.332804
-1.497295
-0.485090
-0.564124
-0.238692
0.033419
-1.519989
1.847480
1.571382
0.139877
-0.025992
0.342294
0.935416
0.184975
0.360559
-0.162657
-0.603386
-1.155171
1.194743
-0.000064
0.222646
-0.177243
-1.044469
1.302048
0.102931
0.312281
-1.679892
0.807270
0.534299
-0.661513
-0.036640
0.324743
0.603262
-0.679140
1.661229
-0.087144
-0.789470
0.213744
-0.770807
-0.268924
-0.403426
-1.604847
-0.491723
0.173648
1.519917
-0.144011
1.058842
0.560861
-0.419886
0.589939
1.296380
0.651174
0.137430
-2.922266
1.222980
-0.472533
0.343823
0.921304
-0.102504
1.485993
0.330539
0.773824
-0.414866
-2.332014
-0.539357
-1.104645
0.835150
0.269157
-1.473135
0.473107
0.226150
-1.121637
0.475060
-0.847309
0.138768
1.001660
-0.800985
-0.049971
-2.082916
-1.797416
-1.209931
0.459125
0.335295
-0.716181
-1.704981
-1.159420
-0.378329
0.730700
-0.083515
-1.179188
0.576281
0.879862
-0.941898
-0.991385
-1.075490
1.132437
-0.719113
-0.772050
-2.253157
-0.184165
0.227645
0.098471
-0.233502
0.127800
1.050464
-1.414631
0.378856
2.753751
0.692553
-0.745959
-0.509587
-0.224460
-1.530585
-0.272905
-0.275227
0.570580
0.210010
1.046431
0.363361
0.395395
0.637534
0.682110
-1.884863
0.639008
1.167452
-0.612050
1.414065
1.110459
1.010623
0.828740
1.365528
1.474848
-1.454108
0.343874
-0.329779
0.169652
-0.562983
-1.323245
-0.568613
-0.454955
1.555438
-0.007087
-0.431562
0.378847
1.303749
-1.483904
1.900842
0.242382
-0.820796
-1.098418
-0.815317
-0.133440
0.876727
0.666914
1.539469
0.560712
-0.403685
-0.566462
-1.069500
0.036099
-1.616554
-1.403007
0.649801
-0.088972
1.215034
0.975705
-0.155099
0.398275
0.083873
0.023065
-0.530577
1.191830
0.457970
0.359790
-1.058244
0.749908
-0.546471
-0.505268
1.311033
-1.189391
0.631674
-0.853202
-0.436742
1.701697
0.970888
0.981790
-0.314166
1.133198
0.675738
-0.961206
-0.415600
1.018791
1.030989
-1.300819
0.454630
1.316886
1.001830
-0.769809
0.508680
0.518493
3.254878
0.239358
-0.261458
-0.730429
-0.079801
-1.143153
-0.107980
-1.966447
-0.203232
-0.054444
-0.699492
0.191049
0.294529
0.262942
0.762387
0.854071
-0.688483
-0.261819
-0.439868
0.915549
-0.491564
0.886801
2.070931
0.848261
0.219757
-0.519068
0.103954
-0.225793
1.829963
-0.152019
2.312021
-0.965792
-0.151939
-1.140937
0.313421
-0.230877
-1.128412
-1.762257
-0.147270
0.511427
0.119842
1.334095
-0.041825
0.265584
0.941452
-0.575218
0.226619
-1.324051
-0.263866
-0.534207
-0.237324
2.128998
0.770931
0.933195
0.157564
0.554335
-0.224123
0.361483
-0.302166
-0.073822
-0.311000
1.103875
0.477347
-0.528051
-0.400696
-0.783057
0.120964
0.442348
0.617756
-1.460082
-0.342689
0.480055
-0.837167
-2.077363
0.099118
-0.554826
0.272233
-0.875271
-1.135616
-0.439186
-0.131463
-0.506789
0.354515
-2.022243
0.848273
-0.979460
1.273538
1.993304
-1.483248
0.371187
-0.997320
0.559437
-0.153613
-0.271041
-0.840996
-0.337412
1.224757
-1.214291
0.203015
-0.644219
-1.545988
0.982189
-2.279617
-0.349592
-0.576118
-0.449359
0.568989
1.689152
1.017266
-1.087076
0.276543
-0.917124
-0.348825
-0.613889
-0.606688
0.217053
-1.046973
0.412510
-0.178340
-0.304645
-1.369144
-0.624790
-0.160055
-0.452930
3.353008
-0.635353
-0.727929
-0.861544
-0.077747
0.153742
-0.355811
0.087259
1.226189
-1.395760
1.064657
-0.186469
-0.257726
1.578805
0.866615
1.276901
1.514179
-0.474215
-0.883007
-1.414823
0.270285
-0.670144
0.661969
-1.339921
-0.730588
0.686016
-0.749445
-0.119520
0.252275
1.789660
-0.678167
1.075478
1.712562
2.149145
-1.681287
1.978305
-1.333873
-0.760585
-0.613767
-0.010423
-0.301944
-1.978143
1.380100
-0.302247
0.441634
0.392328
-0.189089
-0.544678
0.009882
-0.539544
0.699614
-0.127787
-2.216340
1.379142
-0.420928
-0.275419
0.386219
-0.509883
-1.639173
-0.480721
1.855107
-0.654808
-0.748448
0.315865
-0.241852
0.260242
0.530852
-0.043129
-0.806427
0.497477
-0.367337
1.503498
-1.076078
0.522492
0.798415
-1.325175
-1.051858
-1.307470
0.569269
0.198110
0.547099
-1.179866
-0.087773
-0.771965
0.319727
-0.566372
-1.125195
-1.098474
-0.024112
-0.695911
1.211048
0.822520
0.370913
1.494447
-1.520432
-0.911235
0.016898
0.248083
-2.011754
0.423329
0.224252
-0.418188
-0.129615
-0.883538
-0.614287
-0.161980
-1.031549
-1.038220
-0.366794
0.513598
1.080290
1.290894
1.064035
-0.232910
0.175263
-0.215834
1.595187
0.658384
1.215783
-0.147342
-0.221058
-0.789067
-1.055362
-2.013711
-0.064941
0.125545
-0.671892
-1.734765
0.070569
-2.885577
-2.445063
0.581409
0.560314
-1.043603
-0.555882
-0.632104
-0.137197
-0.699102
0.715783
-0.444662
0.731935
0.756646
-0.430160
1.826337
0.089960
-0.312272
0.417605
0.625451
1.468582
-0.364299
0.521296
0.358627
1.611773
0.898738
0.493112
0.643945
-0.499742
0.132965
-2.069784
-1.033500
-0.974596
0.131043
0.153429
0.249636
-1.585679
-0.797286
0.615797
-0.266697
-0.988815
-0.112191
0.818750
0.605158
1.683469
-0.697578
0.449256
2.800825
0.026231
1.303824
0.355213
1.002873
0.933976
-0.144342
-2.326195
-0.855877
1.881372
-2.296699
1.224394
0.037010
0.595988
0.174345
0.741387
-1.326298
0.078333
0.482901
0.369016
0.342579
0.123523
0.228833
1.323386
1.064986
1.877153
0.414997
2.147520
0.871947
1.909206
-0.060337
-0.233768
-0.380360
1.838281
-0.005831
-0.481301
0.253808
-0.039130
0.731649
0.470384
-1.446956
-0.668356
-0.280863
-0.238375
-0.357903
-0.250689
-0.703203
-0.266496
-1.498473
-1.466964
1.110292
-1.378917
-0.053399
0.893147
-1.013291
-1.341386
1.990603
0.045444
1.158002
1.357734
0.481411
-0.139572
-0.843113
-0.751155
1.213313
1.109266
0.953543
-0.559999
-0.319281
0.335643
0.228174
-1.006407
-0.726452
-0.423465
0.934571
0.853970
-0.299155
-1.108930
0.394008
0.120776
0.222536
1.026517
0.807812
0.798827
0.254179
-0.739977
0.026019
-0.922880
0.243789
0.301743
-0.850719
0.546815
0.982930
-0.691934
-0.714787
0.828433
0.665903
0.868874
0.054263
0.155192
-0.990748
-0.187416
0.338967
0.148324
0.199739
-0.737440
1.465546
0.910836
-1.120183
0.761065
0.465266
-0.144136
1.295450
-0.605740
0.121905
1.017860
0.108325
0.764180
-0.366830
0.207846
-0.136006
1.070183
0.534591
0.000100
0.103961
0.008946
-0.363738
-0.165402
-0.276579
-0.612136
1.377624
-0.119886
-0.014571
0.642152
-0.344295
1.428772
-0.805505
-0.797651
2.329246
0.178535
0.110471
0.801129
-0.942568
-1.264982
0.906683
-0.834985
-1.187923
0.340999
0.002712
-0.322129
2.014323
-0.779590
0.767405
0.976440
0.517124
1.121434
-0.929774
-0.993566
-0.383022
-1.630846
-0.925511
-0.001010
-0.226816
0.573164
0.336124
0.029808
0.362279
-1.450426
-0.553091
-0.926646
-2.032713
-0.844403
-0.027536
-1.346696
1.360592
-1.133685
-0.429933
0.630943
1.294857
-1.271007
-0.465606
0.865639
-1.480331
0.388883
-1.459680
-2.574885
0.693646
-0.625800
0.439623
0.850659
0.912185
-0.418390
-0.191803
2.116152
0.374624
-0.457267
1.389652
1.062915
0.575654
1.002173
-0.874929
0.023409
-0.401444
-0.771686
-1.207375
0.821517
0.129710
0.679321
-0.761331
0.277832
1.010935
0.523073
-0.290015
-0.729360
-0.896474
0.592836
0.508909
-1.037727
-0.257441
-0.700716
1.432997
-1.014781
-0.882414
-0.667596
1.149182
-1.924907
0.801862
-0.147867
-0.587296
0.759756
0.552601
-0.460432
-0.103739
-2.174829
-1.856137
0.442889
-1.658267
-1.470069
-1.169831
-1.075363
1.373838
0.215017
-1.600918
-1.070631
-0.619936
-0.820831
-2.227638
0.741276
1.523535
-2.031639
0.106872
0.345841
-0.969976
1.898645
0.385602
-0.074486
-0.947227
-0.314521
-0.554706
-2.008437
-0.113976
1.240327
0.099470
1.698597
-0.745069
0.485469
0.933976
0.932160
0.595208
-1.193412
0.779080
0.026177
1.989382
1.292215
1.231781
-0.174084
-0.582176
0.233834
0.989151
-0.727108
-0.199993
1.126470
-0.810820
-0.027932
0.516142
-0.317597
-0.628925
-0.891799
1.438899
-0.818004
2.284909
1.814648
-0.104845
1.671148
-1.113325
-0.163816
1.122997
0.495699
0.832645
-0.767016
0.569659
-0.268707
0.181105
-1.731395
-0.746455
-1.803705
1.210487
-0.408201
0.471819
1.249872
-0.389589
-0.615233
-0.197797
0.992783
1.708201
1.138319
0.337338
-1.028765
0.662953
0.924871
-0.688612
-0.183877
-0.576115
0.542942
0.695537
0.471715
1.145599
0.646309
-0.023038
2.543580
1.647922
-0.893377
1.179419
0.267688
1.154080
0.774578
1.144608
-1.524547
0.016698
-1.845234
-0.536737
0.720748
0.822934
0.468653
0.394720
-0.944409
-1.017568
-0.367716
-1.067411
0.162968
-0.274022
-0.188968
1.642047
-0.126151
1.398615
0.524107
-0.767237
0.698147
-1.630594
0.768310
0.962849
-0.120042
0.574260
2.729407
-0.188500
0.618373
-0.813658
-1.144721
-0.092560
-0.101362
0.711443
0.009748
0.569619
-1.749865
0.342380
-0.033928
1.278892
0.968790
-0.370948
-0.924767
1.724575
1.469767
-1.670261
-1.536035
0.081569
-1.400549
0.626295
-1.181729
-0.393839
0.688617
0.098311
1.456352
-0.099656
0.729882
-1.212059
0.366677
0.300923
2.878200
-0.479478
0.121688
-1.675499
1.472905
0.549005
1.869509
0.174022
-0.478838
0.450524
0.013796
0.051291
-0.927362
-1.952508
0.600961
-0.169040
-0.635389
1.004881
-1.267373
-0.687154
-0.888940
-0.536445
0.011564
0.776554
-0.152144
0.959917
-2.010326
-1.255766
0.473750
0.512564
0.682091
-0.094085
1.125708
0.611530
1.354195
-0.080572
-0.281875
-0.233100
-0.456342
1.054868
1.080997
-0.353020
0.009213
0.468294
1.671396
-0.962093
0.557410
0.104028
0.002303
-0.743192
-0.749234
1.143846
1.593391
-0.159493
0.000220
0.454008
-1.718835
-1.037037
-1.852618
-0.271527
-0.030224
0.008880
0.277384
0.810166
-0.025301
-1.458235
0.980457
-0.346154
0.287038
-1.241664
0.278692
-0.426881
1.272958
-0.005175
-0.297743
0.788524
1.787869
-0.033263
-0.340890
-0.724503
0.699513
-0.002723
0.604384
1.210775
-0.153792
-0.216685
-0.926191
0.428053
1.835235
0.010429
0.041744
2.368494
0.005870
1.010202
0.771980
0.184461
0.932430
0.587147
2.196718
-0.888904
-1.369943
-0.462695
-1.105195
0.145181
1.182871
-0.020114
-1.732592
-1.413500
-2.539136
1.341339
0.414992
-0.599344
0.284552
0.688094
-0.923844
-0.116865
-1.683366
0.320817
0.718195
0.591085
0.371873
0.196318
0.916036
-0.006114
0.000640
-0.587974
0.697848
1.971277
-1.517919
0.656654
-1.321262
0.029728
1.463865
-0.999318
-1.676544
0.888281
-0.179647
1.065642
-0.592033
0.361009
0.552023
-1.772141
0.263910
0.561517
-0.558695
-0.568906
0.509749
1.353076
-1.182129
1.566384
-0.003349
0.712764
-1.548021
-2.151888
-0.111453
0.923909
1.920410
0.142764
-0.434829
-0.327760
-1.051466
-0.355624
0.426808
-0.047406
0.423995
-0.673990
-0.420221
0.197083
-0.891833
-0.343507
-0.021325
-0.138764
1.028238
-0.164454
0.123203
1.360427
0.733296
-2.157681
1.201972
-0.663682
1.952044
-0.731355
0.947268
1.094283
0.157942
0.446389
0.217228
0.628474
-1.568763
-0.068799
1.324555
-0.977437
0.725301
0.744805
0.922150
2.030143
0.069972
0.070481
-0.646001
1.486070
1.123550
1.209097
-0.861713
-0.954083
0.545709
0.430123
-0.052009
-0.714479
1.112198
0.238852
-0.930360
0.891273
0.715094
1.320795
0.381340
0.722218
-0.085800
1.261405
1.431064
-0.643236
0.393242
-2.012415
-0.763464
-0.650672
1.032845
-1.279824
-1.121895
0.837774
-1.737100
0.108189
-0.325906
0.496436
-0.973016
-0.734216
0.160969
0.214952
-1.518363
-0.370587
0.353567
0.332653
-0.127647
0.215090
-0.917809
0.175229
0.726764
-0.910486
-0.358870
0.367677
-0.720258
0.019806
-0.295372
-0.987834
0.442622
-1.153707
-1.506523
-2.412405
1.584092
-0.127307
0.823300
0.112113
1.001093
0.605511
-1.084732
0.248493
-0.090888
0.915248
1.002333
-0.135327
0.013815
0.468647
1.803519
-1.301647
1.403944
0.592812
-0.453023
0.121086
-0.179526
-0.008025
1.606203
2.405789
-0.689917
0.304519
0.477458
-0.132357
-0.275550
-0.759782
0.480646
-0.220604
-0.295417
-1.531005
-0.714726
-0.586785
2.073706
0.005261
-0.627233
0.685152
-0.199188
-1.620358
0.182467
0.712535
1.569766
-0.414550
0.317917
-1.539055
-1.587775
1.783465
0.766153
-0.477733
1.337343
-1.142985
1.539761
0.017317
-0.427518
-1.619203
-1.054406
-2.315390
-0.806703
1.378849
-0.426684
-1.140607
-0.611618
2.022031
-0.713407
-1.104653
0.382203
0.194991
0.218198
-0.331877
-0.001076
-0.665448
0.064549
1.631816
0.946760
0.167122
-0.609727
0.240473
2.086508
-0.417261
0.692875
0.628335
-0.357340
-0.447890
0.471554
-0.161980
0.777838
-1.309172
-1.968663
0.293663
1.513395
0.259133
-0.228588
1.199255
0.639766
-0.264667
-2.040087
0.560022
-0.746147
1.465002
0.289970
1.291481
-0.517193
-0.608943
-0.775422
-2.233385
1.005284
0.025498
-0.697873
0.699869
0.568338
-0.867543
-0.305054
-1.704820
1.683331
1.400257
1.296602
-0.406428
-1.791823
0.189279
-1.222071
-0.131711
-0.678385
-0.195443
-0.345619
-0.859497
-0.101775
2.003804
0.225586
0.653429
-0.898782
1.154267
2.068837
1.084620
0.362376
0.485035
-1.495852
1.374403
-1.137393
1.503836
-1.454513
-0.330858
0.096758
0.335852
1.018646
0.461233
-0.753625
2.114823
-1.177753
-0.288469
-1.371072
1.312877
-0.923356
-0.957746
-1.181591
-0.171804
0.828125
-0.434683
0.982924
0.091002
-1.321396
0.406676
0.678837
1.056400
-0.522515
0.297379
-1.087610
-1.691040
-1.296880
1.668779
-0.006275
0.297186
-2.148097
-0.243638
0.668503
0.015498
-0.675545
-1.212449
-0.192342
-0.686611
-0.939695
0.581963
1.488009
-1.275271
-0.747716
-0.989977
0.736183
-0.999447
-1.223494
0.621584
-1.920463
1.710513
-0.794520
2.171245
0.908680
-0.078712
0.571169
-0.832680
0.831963
-0.025511
-0.988522
-0.139461
-0.960587
-0.355597
-0.004433
0.526855
-0.679777
-0.462660
0.606448
-1.383902
-0.398414
0.040657
1.273286
0.493142
-1.506283
0.597087
0.715867
-0.905411
0.964121
-1.282722
0.456873
-1.446087
1.007781
-1.717005
1.187112
-0.191900
0.546494
0.902492
1.441565
0.696529
-0.323788
-0.680515
1.276998
1.147563
0.287956
0.694443
0.059415
0.323009
1.642007
-0.415777
0.683119
0.034884
-1.025803
0.128758
-0.533119
-2.143426
-0.650473
-1.632701
1.293339
0.566536
0.608041
0.285501
0.092866
0.481638
1.171944
-0.421400
0.540382
-0.813536
-0.947319
-1.562712
-1.357276
1.747070
0.857146
0.534789
0.397654
1.056502
-1.941079
0.638871
-0.190677
-0.090442
-0.744431
-0.200806
0.677269
0.383551
0.669017
-0.680362
1.683503
-0.808788
0.209993
2.034576
0.002166
-1.843113
0.185997
-0.652059
-0.519289
0.312981
-0.846499
0.367335
0.417004
-1.534844
0.103104
0.119143
-0.275335
1.666771
0.375501
0.166015
-0.326229
0.934002
-0.788105
0.239535
0.904288
1.491540
-0.263455
-0.276983
0.950355
-0.282963
0.083239
-0.075261
-0.260394
0.778263
2.141911
0.125263
0.171674
0.608046
-0.760934
-2.127739
-0.282986
0.081939
1.843974
-0.608459
0.250354
-0.064386
-1.729332
-0.727161
0.202438
0.976593
2.088747
-0.369355
2.225796
0.254006
-1.306061
-0.447850
0.968616
-1.750512
0.406474
1.935614
-0.429858
0.753380
0.327248
-0.565504
-0.111442
-0.804268
0.503328
1.423465
0.071812
0.426269
-0.283505
-0.093672
-1.506840
1.020047
0.255445
2.456704
-0.743587
-1.029942
0.864312
-0.441625
1.992937
-0.295138
-1.801440
-0.134190
1.076667
0.473215
-0.707277
1.261959
1.066323
1.525749
1.429732
1.215573
1.875363
0.289682
0.533668
-1.774032
-0.266919
0.862546
0.943207
0.796238
-0.482960
0.030667
-0.863947
0.516626
1.161591
1.449592
-1.598027
0.361242
-0.358845
0.056917
-1.652780
-0.908179
-0.047562
-0.871100
-0.031157
0.595651
-1.238097
0.499873
-0.746914
-0.641640
0.517075
-0.318656
0.786845
-0.092904
-1.296846
-0.345069
0.564490
0.421171
0.732851
0.049165
1.182973
-0.401492
1.996612
0.292929
-0.990880
0.276907
0.262460
0.539747
1.913367
0.309529
0.570778
0.540335
1.291206
-1.055843
-0.976923
-1.626420
-0.458272
-0.073491
0.608992
0.674281
1.398209
0.145974
-1.406599
-1.175348
0.635924
-2.250366
-0.709372
-0.628974
2.091970
-1.465983
1.824986
0.278759
-0.684020
-2.063369
1.161987
1.171857
-0.782537
-1.280724
0.192605
0.688342
0.848770
1.824032
-0.081815
0.194939
1.918102
0.268257
-0.018458
-0.622533
-0.186923
-0.865524
0.708725
-0.781691
-0.339435
0.547167
-0.897004
0.385188
-0.347749
0.176493
0.760447
0.330614
0.718107
1.110638
0.021121
-0.409203
-1.416931
-0.170917
0.232757
0.972060
0.265433
0.018959
-0.671094
2.189410
2.485525
0.227733
-0.032836
-0.268545
0.072180
-1.758822
-0.983665
0.599239
-1.125141
1.884415
0.985040
-0.639933
-0.060853
-0.301154
-0.057890
-0.329991
0.362456
0.567017
-1.263373
0.834016
1.887882
-0.397335
-1.478121
-1.794979
0.836706
1.085143
-0.611686
0.669647
-1.232666
-1.025156
-0.774160
-0.320507
-0.083247
0.474076
0.518310
-0.678433
0.338646
0.938758
-1.602157
0.289903
0.040371
0.460096
-0.200291
-1.101018
-0.069652
0.069856
0.142187
0.230416
1.002602
0.122130
-0.118781
-0.151021
-1.099749
-0.942422
-0.406006
0.778404
-0.935609
-0.808353
0.650269
-0.331540
-0.091543
-0.814506
-0.991902
-0.897117
1.381286
0.184336
-2.533057
0.229141
-0.341994
-0.424722
-0.422566
0.473605
0.037051
-1.025495
0.739926
1.606694
-2.008936
0.409366
-1.104186
0.474912
0.782872
-0.236445
0.237865
1.678159
-1.710155
-1.058288
0.930951
0.644477
0.364243
-0.258946
1.814191
1.191973
0.759962
0.165849
-0.710976
-0.452107
-0.437031
0.038443
-0.669730
-0.523092
0.698941
-0.225204
0.169253
-0.895775
1.520425
-0.368960
0.562275
-0.168836
-0.575533
-1.821913
-1.695227
2.462757
-0.899224
-0.661040
-0.769324
0.609151
-0.556712
0.726233
0.173587
-0.032882
1.058736
-1.670629
-0.466463
-1.028742
-0.267122
-0.076566
0.204528
-0.651238
-0.815184
0.026125
-0.876744
0.357326
1.455027
1.112185
-1.094484
0.536009
-0.770481
-1.090291
0.558479
-0.199390
1.303300
1.681879
0.651726
-1.582609
0.681237
-0.433100
0.375624
0.623098
2.482803
-1.209100
-1.744036
-0.587981
-0.005223
0.506653
-0.969705
1.929754
0.621706
0.294990
0.422382
0.849563
-1.058764
-1.094815
-1.193646
-1.697791
-0.349398
0.042357
0.998108
-0.485770
-0.886499
0.723364
0.205579
0.710149
0.680574
0.960759
0.045059
-1.290085
0.218190
0.251966
-0.483676
0.046563
1.579076
-0.030014
-1.532971
-0.040252
-0.964267
1.008759
-1.086496
0.736386
0.899824
-0.892942
-1.206238
0.965114
-1.486540
-0.824168
0.579031
0.687339
0.939705
-0.842742
1.504575
-0.022295
0.269738
-0.337428
0.348397
-1.615111
-0.376511
-1.343894
1.285199
-0.718501
0.836613
0.974505
-1.214668
1.028582
0.043173
0.487534
-0.348554
2.287002
0.389178
-0.206868
0.440957
0.280910
0.737707
-0.874070
-0.528632
0.132874
0.979004
1.105762
-0.554219
2.442173
-0.644009
0.957421
1.324308
0.254531
1.140383
0.595257
0.479441
-0.475455
1.343825
-0.796215
0.266268
0.318041
-0.047013
-0.369953
0.081024
0.787943
0.467298
1.309883
0.104091
-0.431084
0.907423
1.255471
0.746363
0.323235
1.281873
-1.732179
2.240779
1.139873
1.363567
-2.106111
-1.463723
-1.812483
-0.639934
0.301593
0.677204
0.168102
-0.028038
1.560526
0.159992
-0.409099
-0.779778
1.535567
-1.358415
-0.224927
-1.705097
-0.061778
1.085281
0.043983
0.569140
1.217964
-1.158280
-1.055695
0.232518
-1.755441
1.036887
2.833401
0.515207
0.509810
-1.543133
-1.667144
-1.290790
0.286180
1.841482
0.077295
-0.931354
0.638420
-0.940185
0.523337
1.067103
0.491209
0.765042
-0.378353
-0.378131
-0.835358
2.078959
-0.702012
-1.545837
-0.563149
-0.891942
1.495823
0.450357
1.260292
-0.784505
0.683716
1.725466
0.116297
-1.146700
0.730294
-0.620376
1.292920
-2.607341
-0.595785
0.415266
0.038906
0.270442
1.591442
-0.183494
-0.640836
-0.075534
-0.543486
0.797176
1.575162
0.540891
-0.602906
-0.164697
0.644893
-0.508215
1.228687
-0.678648
-0.587666
-0.035485
1.614225
0.240090
-0.841576
0.160787
0.366169
-1.719318
-0.072620
1.748092
0.557279
-1.393227
0.051573
-0.214542
-0.549693
-1.214233
1.323997
1.388515
-0.128286
-0.484466
-0.811149
-0.405882
0.825429
-2.497496
0.470481
-0.756270
-0.168238
0.624930
1.119090
0.752002
-0.276352
-0.974672
0.078720
0.279556
0.692233
1.465531
-1.092592
2.351881
0.411069
-2.126415
-0.484854
-0.373979
-1.042856
-0.710271
-2.136156
-0.660249
-0.621073
1.723270
-0.041731
-0.502974
0.931508
0.062030
-0.695288
0.528297
0.158660
1.150143
0.923878
0.027699
-1.743762
1.204228
-0.727940
-2.944411
-0.709764
-0.488945
-0.362650
-0.440899
-0.223917
0.458889
0.852014
0.837871
0.346610
-0.096088
-0.424994
-0.499353
-0.040703
1.237502
0.152592
0.723982
-0.262576
0.072929
-2.114936
-0.801799
1.550201
-0.161263
0.298488
0.208984
-0.724552
0.420911
-0.104162
0.356633
1.825856
-0.601511
-0.478058
-0.614039
1.250141
-0.690342
-1.472365
0.837450
0.801245
-0.338795
-1.277136
-1.087643
-1.917456
1.381410
0.242901
1.486627
0.170085
0.351006
0.628523
-1.218602
-0.042430
-0.702982
0.621467
-1.446531
1.338924
0.206701
0.275055
-0.081795
0.206205
-1.685707
-1.099481
1.724160
-1.298733
2.848201
1.569178
0.363021
-0.068812
0.762409
0.060702
-0.468279
-0.627290
-0.564433
0.308534
-1.876997
0.326574
-1.014460
-0.080522
-0.674102
-0.492735
-0.305956
-0.499388
-1.010765
-1.438779
-0.306163
0.972642
-3.558349
-0.732122
-0.394338
-1.494701
0.221709
1.662456
-0.902303
0.559914
-0.752317
1.102191
-0.090338
1.580973
1.455557
0.046552
-1.444935
-1.203273
-0.037117
0.321044
0.574816
-0.159151
-0.056091
-1.723813
-0.373324
-0.024712
0.179498
0.394432
1.422672
0.420272
-0.022643
-0.837242
-0.402481
-0.316047
-0.043319
-0.168258
-1.008019
0.644358
1.237234
0.056137
0.923830
0.098819
0.633060
-0.431676
-0.937731
0.902540
-0.359603
0.683207
-1.009833
1.979904
0.580026
-0.356030
0.032394
0.171318
1.684139
0.093914
0.645370
-1.614896
0.391940
0.097236
0.278532
0.854281
0.338139
-0.420118
0.086334
-0.804773
-0.887345
-0.113120
0.982320
-0.686470
0.185469
-0.622906
0.583913
-1.263125
-0.459346
-1.436315
1.909137
-0.589658
1.205203
-0.332928
1.566253
-0.297821
-0.454338
0.431399
-0.409142
0.424708
-0.920984
-0.874687
1.897223
-0.882062
0.272990
0.502795
0.198660
0.365629
-2.219639
0.133359
0.357558
-0.415270
-0.431024
0.113717
-0.017874
-0.460792
0.126911
1.428797
-0.597372
0.926990
-1.521772
0.567903
0.541376
-1.148270
-0.314458
-0.656629
0.504577
-0.155709
0.645308
0.017766
-0.908778
0.161424
0.376479
0.106203
-0.680746
-0.231674
0.357358
0.635311
1.155855
0.772171
0.642754
-1.696738
0.837656
0.022047
0.209711
-0.853369
-2.543314
-0.867792
-1.011000
0.572583
0.649466
0.056258
-0.904668
0.753861
-1.076450
-0.608180
0.969575
-0.604040
-0.475148
0.470226
-1.570078
-1.013673
-1.052069
-0.276361
0.255080
-0.361090
0.769024
-0.972020
0.041747
0.045412
0.687033
0.156608
1.362100
-1.880221
-0.548664
0.587443
1.121092
0.715227
1.226757
-0.152034
-1.143115
0.065659
0.611284
-0.121000
-0.593144
0.443311
0.636019
1.197441
-0.876002
1.390819
-1.045126
-0.499562
0.649460
-0.022475
2.643204
-0.094403
-0.538638
-0.901383
-0.633112
0.064418
-0.160851
1.488815
-0.912278
0.047274
-0.894689
1.003467
-0.863548
0.229837
-1.947510
-0.223532
-0.400953
1.560434
-3.230547
-1.639893
0.377971
-1.789468
0.733131
-1.442422
-2.257744
-1.289454
0.048584
0.900472
-0.996217
-0.373422
0.862371
0.197458
1.462612
-0.618410
0.326452
0.238020
-0.423802
0.324476
0.031451
1.764549
-0.004926
-0.574100
0.677962
-0.910140
-1.494051
-0.156968
-2.448056
-0.044149
-0.607029
-0.036464
0.109252
-1.013946
0.500150
0.794771
-0.060096
1.464939
0.263594
-1.437124
-1.599969
0.569091
0.136196
-0.689489
0.380418
-0.052038
-0.271258
-0.383639
-0.933586
1.681616
0.708450
-2.277577
-0.600329
-0.781034
-0.387484
1.393588
-2.130041
0.556325
-1.019697
-0.098021
-1.059502
-0.481173
-1.116061
-0.462503
1.453607
-1.039120
-0.394320
-1.826681
0.333724
1.885382
-0.318267
1.283538
0.695125
1.350488
-0.704893
0.144135
-0.390997
-0.972432
0.384242
0.174240
-0.368871
1.496016
-0.407460
0.067147
1.431353
1.213290
0.466673
0.791570
-1.150378
0.243512
-1.187294
1.267410
-1.513607
0.470493
0.668965
1.480874
-0.314285
0.634064
-2.080342
1.743340
-0.110894
-1.158728
-1.028704
1.179926
-0.504131
0.374943
0.382091
-1.426440
-0.913927
-0.301517
1.709272
-0.762309
-1.153545
0.898828
0.653588
1.719108
1.515165
-0.093352
-0.029866
0.359123
0.337293
2.070808
0.826925
-0.244185
-1.062715
1.602782
0.190559
1.252287
-1.996359
2.835875
1.605785
-0.785446
-0.054526
0.186192
0.087983
-0.921360
-1.442228
-0.325396
-0.973231
1.613826
0.700357
1.200265
0.035726
-0.012191
-0.474834
-0.384791
0.130878
1.161975
-0.069320
1.586727
0.389672
0.642184
-0.022683
0.192346
-0.449635
-0.594672
0.831174
-2.529711
-0.736236
0.972596
1.352453
1.788018
-0.476137
-0.198329
0.162155
1.703284
0.918796
0.165086
-1.395178
1.349742
-0.735733
-1.141891
-0.199853
-0.230607
1.025196
-0.538301
-0.795053
-0.245827
-1.046525
0.008292
-0.409930
-0.886571
-0.092824
0.462299
-0.002468
0.849633
1.863642
-0.287026
1.022473
-0.834985
-0.450755
0.634537
-0.927745
-0.094120
1.375983
-0.031686
1.570185
-1.030891
-1.959148
-0.860145
-0.816398
-0.757173
1.009644
1.183568
0.830606
-1.130464
-0.746789
-1.098946
-0.931357
-0.597849
-0.356561
-0.341928
0.047550
-1.072877
-0.213559
0.547677
0.343538
-1.173386
-0.657932
1.541687
0.818927
0.589139
0.752779
-0.056776
0.531484
-0.466123
-0.094659
0.021129
-0.661915
0.532697
0.395337
0.650730
2.031729
0.861786
-1.485709
-0.556427
-1.570138
-0.529863
0.864614
-0.235426
0.520464
-1.598685
-0.434267
-0.015291
0.226651
-0.184317
-0.890145
0.442010
2.478123
0.576267
-0.670423
0.168400
-0.339178
0.153827
0.646843
-0.946833
-1.562370
-1.375112
0.911004
-0.925135
0.703926
2.208625
0.296559
-0.422242
0.434611
0.440566
-1.853018
0.909641
-0.478373
0.122209
-0.600424
1.679709
-0.807414
0.066449
0.982601
-1.376339
-0.445368
-0.256134
-0.344705
-0.150177
-1.804358
1.483641
-0.881661
0.978492
-1.766098
1.189775
-0.959673
-0.883877
0.327576
-1.099096
-1.661860
0.581762
-1.160362
-1.445491
-1.241158
-1.309687
1.216576
-0.432897
0.277752
-0.797679
-0.471784
0.015319
-0.747489
0.511316
-0.379803
2.049643
-1.186060
-1.404533
1.141305
0.633623
1.674014
-0.576012
0.623791
0.976549
1.534125
1.567284
0.111351
0.830268
-0.164904
-0.570119
0.778060
1.050928
-1.919683
-0.236719
-0.604923
-0.426590
1.553633
-0.143042
1.951830
0.106270
0.058534
-0.753275
-0.600369
-1.707400
-1.096392
-1.145794
-0.633236
-1.123201
1.964501
-0.822720
0.185032
0.209415
-0.268703
-1.398116
0.169420
2.470712
0.981523
-0.373797
0.370142
-1.215230
-0.690414
-0.723151
-0.289469
-0.406587
1.061243
-1.369025
1.122214
0.546187
-0.119383
0.172016
-0.386668
1.319623
1.570401
-0.206026
1.544696
0.275359
-0.409794
0.144871
-1.884258
0.835493
-1.505912
0.564738
0.864280
1.440291
-0.727973
-1.920813
0.256375
0.358540
0.405388
-0.948150
1.179235
-0.773426
0.502365
0.165337
-0.312082
-0.415745
0.333969
-1.125249
0.496661
-1.114302
0.401179
-1.289270
-0.446361
0.444780
-1.628116
-1.123460
0.400089
0.751785
0.858113
0.172825
-0.373681
-1.066084
0.917310
1.801579
1.336364
-0.917016
0.744323
0.539788
1.178744
0.571228
-0.607700
-1.318598
-0.543267
0.836483
0.062053
1.058879
-1.101210
-1.533013
-0.959545
0.036668
-0.518031
-0.379205
-0.409191
-0.059469
-0.118615
-0.894440
1.614860
1.592565
0.620177
-0.542666
-0.188872
-0.892922
0.825640
2.056012
0.448667
-0.090953
-0.770329
0.804149
0.684298
0.592824
0.426201
1.217182
-1.112546
-1.027930
0.004718
-0.821783
0.077399
-0.668157
-1.873369
2.408211
-1.821169
0.867533
0.865138
0.085819
-0.335298
0.763318
0.504454
-0.732772
-0.076866
1.941489
0.183880
-0.797595
-0.157066
-0.173115
0.732168
0.061670
-0.430105
-0.409469
-1.446994
-0.120759
-0.007043
-0.325619
0.552064
0.164231
0.310614
-1.377382
-1.302577
-1.191976
-1.186201
0.040082
-0.906662
1.216911
0.279831
-1.701227
1.870999
0.977689
0.322250
-0.916377
0.351164
-1.429831
0.043071
-1.865559
-1.480639
1.287020
0.074923
1.064944
-0.075278
1.170432
1.008107
0.356108
-0.107779
0.644289
-0.444922
-0.149386
1.264065
-0.225945
1.796095
-0.169647
-0.132979
0.234697
-0.715304
0.010821
-1.637049
0.072519
0.807657
0.228833
-2.159700
0.422907
0.369996
0.067386
-0.846899
-1.446994
0.481611
-1.258328
2.476048
-0.019132
-0.872122
0.025075
-1.055455
-1.777299
0.426583
0.425663
0.379913
0.636012
-0.754348
0.730173
0.232122
0.200714
-0.556413
0.156254
-1.377604
-0.719920
-0.947742
0.210594
1.388019
1.181951
0.636529
-1.181075
0.419100
0.900852
0.227831
-0.603270
0.378844
0.464337
1.069594
0.618726
0.140919
-1.633582
-0.154353
1.111620
0.979378
0.467937
1.196132
-0.912506
-0.234661
0.048678
-0.625073
0.526068
0.982280
-0.387341
-0.311774
-0.918154
0.090127
0.378748
-0.366796
-0.099398
1.085468
0.037805
-0.993134
0.533193
-1.283977
-0.804128
-0.357734
1.208346
-0.892177
0.864153
0.259584
1.076542
0.207071
0.315227
-0.460069
0.041848
-0.165472
-1.019669
0.419813
0.386449
1.414038
-0.348903
-0.566145
-0.323323
0.036599
-1.803785
-0.425916
1.100184
-1.585059
-0.485414
0.318278
-1.210777
0.612802
0.501361
0.722316
0.674634
0.624074
-0.248902
-0.892905
-0.561553
-0.568103
0.143065
0.363658
0.792130
0.575678
-1.041674
-2.578532
0.584223
-0.571171
-0.579756
0.954159
-0.282189
-1.357484
-0.220413
1.342714
0.786726
0.235037
1.418683
-0.225556
0.188535
0.414660
0.356746
0.605421
0.860779
-1.120226
-0.987865
-1.262559
0.465406
1.646698
-1.244000
0.999748
1.291954
-1.043942
-0.176027
1.292688
-1.317600
0.446578
0.684332
1.043439
-0.260641
-1.689197
0.434306
-0.637234
1.722249
-0.941981
-0.037872
0.227380
-0.157561
-0.357165
-1.285405
0.052948
-0.534666
-1.112988
0.131599
0.892144
0.613968
-1.132015
0.503437
-0.890146
-0.848302
0.385187
0.833982
-0.110107
0.508857
0.992522
-1.265291
0.514225
-0.881283
0.318889
-0.928193
-0.543664
-0.548159
1.406318
-0.220394
0.171861
0.491450
0.405211
-0.406022
0.596307
0.537053
0.199645
0.746548
0.421372
2.175049
0.113829
-0.218195
0.308244
-0.032936
-2.113781
-0.783126
0.341632
0.203010
0.936531
1.068652
0.235073
-0.819379
1.188807
-1.305310
0.044919
-0.250015
0.220837
0.215241
-0.765515
0.706773
0.034503
-1.325116
-0.363399
-1.266577
-2.280784
-0.481138
-0.175541
0.350352
-0.777556
0.920222
1.009676
0.975404
-0.128488
-1.266290
-0.892892
0.153638
-0.442288
0.724481
-0.745463
-0.552337
1.347090
0.171466
1.037642
-1.504495
0.458431
-0.394895
-1.987082
-1.253868
-0.225496
-0.746798
-1.181843
1.243041
0.435651
-0.407400
-0.478866
-1.005815
0.131550
0.157567
0.395741
0.576747
-1.269402
-1.550813
0.619722
0.341438
1.336104
-0.214669
0.979576
-1.594947
-0.003321
0.953819
-0.000371
-0.172507
-1.243224
0.384995
0.005729
-1.275425
-1.227771
0.381281
-1.174332
-0.683847
-0.881169
2.157902
0.437714
-1.631174
-0.981999
0.919338
0.447126
0.481855
1.010367
0.055959
-0.607327
0.303998
0.719201
0.762742
0.716317
-0.754878
-1.926457
-0.044536
-1.184564
0.752684
-0.413988
0.055424
-1.894752
0.263218
0.036941
-0.663946
0.494381
-0.438786
-0.023403
1.299863
-0.649069
0.441330
0.706985
-0.261157
-0.459545
-1.940474
1.425009
0.319947
-0.946005
0.875418
0.563356
0.065456
-0.538758
-0.927222
0.655668
-0.254591
-0.303201
-1.130206
-1.253090
1.071233
0.394203
-0.187898
0.002516
1.582546
0.864853
0.493292
1.304251
0.327020
1.062433
0.566516
2.096541
1.054769
0.819223
-1.171774
0.629657
-1.017512
-0.332761
0.257007
-0.601248
-0.871730
1.691109
-0.667717
0.598536
0.192213
0.015134
1.310242
0.321725
0.105884
0.363394
-1.055279
2.116366
-0.961043
-0.105128
-2.537437
0.083091
-0.045674
0.652358
0.271586
-1.338584
-1.523604
1.034276
0.823521
-0.480180
1.075237
0.210395
-1.134067
-0.029306
-1.731812
-0.743552
0.287261
-0.288548
-1.142239
1.303266
-0.050505
-1.457193
1.869552
-1.251603
-2.135020
0.881376
-1.635604
0.089877
0.842387
-1.958966
-0.998712
0.343019
0.345752
0.908674
0.287619
1.126620
-1.495391
0.561397
0.383728
-0.797532
-0.042134
-0.358072
-1.312990
-0.815666
-1.822889
-1.214231
-1.725787
0.217311
-0.499493
-0.784529
-0.200869
0.627891
0.549600
0.097617
-1.054629
-0.155975
-1.275038
2.183922
-0.145474
-0.516340
-0.001217
1.451951
0.670641
-0.259590
-0.286887
-0.995649
-1.151102
-0.030992
-0.524602
-1.564674
1.043760
-0.995526
0.905029
-0.437007
-0.839592
-1.185628
0.400754
-0.300366
0.585800
-1.055788
-0.676165
-0.258268
-0.900455
-0.861612
1.450101
1.487109
-0.989190
1.360914
0.901416
0.321003
1.253036
-0.577203
-0.499932
-0.321998
-0.498260
-0.166095
2.167986
2.111335
1.761719
-0.185596
-0.696479
-1.035549
0.480415
-0.714060
-0.464884
0.013584
-0.605626
0.426723
-0.659083
0.574337
1.042281
-1.675965
-1.356349
-0.192143
-0.112613
0.961235
-0.590838
0.857253
-1.403787
1.616826
-1.296553
-1.486663
1.938143
0.307087
-0.806556
-0.742351
-0.002605
1.693143
0.160129
-1.341523
-1.217968
0.252263
0.189091
-0.710716
-0.016269
-0.714571
-1.408219
-1.298903
0.052177
1.465154
-0.384785
-0.321555
1.459775
-1.747035
-0.209856
-1.460680
-1.039092
-1.575105
-4.009635
-1.757250
-0.367099
0.079525
-0.187826
-0.203529
-0.478275
0.083752
0.612710
1.527665
0.167922
0.035308
-0.387421
0.509377
0.891120
-1.815700
-1.235791
-0.672192
2.897414
-1.481717
0.980297
-0.375405
-0.635846
0.112004
1.625163
-0.246262
-0.531633
-0.369709
0.827983
-1.512242
-0.075437
-0.573545
-1.046572
0.285639
-0.186880
0.706929
-2.618168
-0.114754
-0.195252
0.055168
-0.622639
-0.140126
1.004244
-1.811892
-0.404028
1.037959
0.257007
-1.332185
-0.446179
-1.411091
-0.716006
-1.086578
2.132426
-0.254890
-0.572602
-0.001809
1.594290
-1.036600
0.282452
-1.508528
1.464991
-1.162295
0.553232
0.778288
-0.062732
1.261695
-1.261917
-0.086071
0.997607
-0.701988
-0.284279
-0.800309
0.688959
0.859164
-0.706525
0.277069
0.334016
-1.311109
0.468986
-1.534901
0.440233
-1.243291
1.678926
-0.066317
0.238280
-0.186032
0.619612
1.614012
0.414108
0.258846
0.097449
0.423119
-0.950856
1.253464
0.013312
0.385381
1.512446
1.636835
-0.683182
-1.043689
-0.584276
-0.321680
0.636282
0.654440
-0.054135
-0.128200
-0.687122
-1.256634
-1.151999
-1.189972
1.411003
-0.784806
-0.489692
1.070252
-2.144625
0.266019
-0.531999
1.120767
0.917355
0.366230
0.700260
0.657060
0.580745
0.847938
-0.033319
0.024825
-0.457094
2.061941
-0.589294
-0.800259
-0.120785
1.684063
1.899245
0.546449
-1.026224
-1.086540
0.274984
-2.039787
0.423465
1.111636
1.161966
1.457942
0.279450
-0.834502
0.093406
0.127085
0.231189
-0.019067
-0.899632
1.908421
-1.654053
0.300367
-2.150620
-1.700213
-0.957154
2.785120
0.004750
-1.012353
-0.369746
-0.894736
1.415496
-0.206020
1.346898
0.322170
-0.751198
-0.166062
-0.389007
1.912049
0.882982
1.052672
0.560199
-0.286697
-0.928459
0.762485
2.069333
0.149304
-0.122230
1.324175
-0.393610
0.894615
0.127359
-0.103743
-0.469541
-0.521666
-0.392581
1.071126
-0.449671
0.371320
-0.903309
0.397975
-0.252723
1.261680
-1.784991
-0.491041
0.152411
0.653198
-1.028542
-1.037351
0.007512
-0.387027
-0.788458
0.131526
0.643929
-0.367512
0.351292
0.215783
-1.260516
-0.151530
1.025756
-1.068990
1.334875
0.700410
-0.393856
0.197439
1.568543
0.703855
1.159081
-0.290724
-1.325556
-0.683335
-1.132838
0.582623
-1.749496
0.822763
-1.232399
-1.145378
-0.372353
-0.541256
-0.565827
1.408331
-0.536067
-0.663336
-0.591356
0.385650
0.563360
-0.742450
-1.327965
0.995773
0.254473
-0.682524
-1.827247
0.503804
0.419028
0.242394
0.698759
0.408658
0.593727
-0.099575
-0.261020
-0.088982
-0.957876
-1.048547
0.258430
-0.095592
-0.232601
0.372837
-0.237972
-0.549213
1.111925
0.780245
-1.753529
-0.547436
0.069570
-0.209209
0.225915
-0.191287
-0.339361
0.393745
-1.720631
0.528569
-0.059828
-1.020904
0.023729
0.332091
-1.874669
-0.085211
1.018589
0.750820
1.601896
-1.109520
0.318277
0.417796
1.586947
0.572136
1.557408
0.509947
2.428070
-1.716302
0.139027
-0.658012
0.138397
0.719824
-0.443770
1.914568
-0.035619
-0.520163
-1.172013
-1.106483
-0.441072
0.799254
0.246711
0.225262
0.741488
0.089239
-0.303353
0.465575
-0.796349
0.796599
0.347594
-0.726456
0.925603
0.553689
-0.547325
-1.640877
-0.195349
0.602631
-1.171992
0.141233
0.887015
0.345434
0.415117
0.966705
-0.228993
1.013154
0.283289
1.053386
1.270559
-0.559471
-0.266233
1.427020
0.941686
-0.140059
0.686388
-0.189018
-0.435049
-1.059045
1.724644
1.481025
-0.893519
0.299275
1.553683
-1.094669
-1.686652
-0.492286
-0.102652
0.308610
-0.949216
-2.024538
1.326247
-0.708942
-0.199276
-0.542641
2.321132
-1.194171
0.071599
-1.208027
0.861419
-0.703030
-3.039296
-0.503516
1.549502
1.726132
0.329344
0.740941
-0.669288
-3.052900
0.041342
0.111957
-0.559088
-0.878408
1.847011
0.656691
-0.388203
-0.369058
1.282558
0.397569
-1.085647
1.113792
0.753861
1.295412
2.348890
-0.309561
-0.010927
-1.853170
-3.137336
0.300886
1.177425
-1.169421
-0.932484
0.510887
-1.015448
-0.449067
0.820776
-0.137730
-1.311392
-2.172641
-1.544404
0.008249
-1.759090
1.174825
-0.077411
-1.859176
-0.904839
-2.268490
0.548981
0.209235
-0.468627
0.455640
0.620863
1.371082
-0.637161
1.234707
0.039771
1.015251
-1.494318
0.820428
-0.587319
-1.472922
-2.053400
-0.142105
1.900042
1.572290
-0.493673
0.239999
-0.462266
-1.058926
2.304516
-0.522228
-0.320220
0.849120
0.064803
0.547261
1.393144
-0.296282
0.819782
-0.153850
0.411859
-1.685818
0.181896
1.154083
1.849710
0.834125
-1.011461
-1.441679
0.573409
0.495202
0.989351
-0.644768
-1.959733
0.373606
-1.524883
1.736009
-1.048821
1.168003
0.489539
-1.512997
0.648395
-0.426514
0.164987
1.499189
-0.844911
0.970356
0.838385
-0.297163
-0.001428
1.984685
0.149168
-1.610771
1.455110
0.462921
-0.189994
-1.143661
1.319817
-0.959796
-0.071453
0.249522
0.528143
0.240032
-1.609107
0.670996
0.977741
1.184722
-0.067871
0.103765
0.221668
-1.190182
-0.089352
-0.103849
-0.750085
-0.500050
-0.937149
1.185459
-0.300170
1.690710
1.500028
0.987482
0.581836
0.090903
0.806714
0.900359
-1.216271
-0.037814
-0.339643
1.351708
0.422086
-0.086777
-1.539376
-0.228430
-1.491154
-1.240401
-0.640266
-0.854696
0.118266
-0.622750
2.155673
0.634069
-0.494766
-1.158595
1.087708
-1.179468
-1.608164
0.799003
1.188553
0.853792
0.365575
-0.666025
-1.245178
0.879484
0.127079
0.205216
-0.093461
1.573627
-2.342319
-0.799808
1.019214
0.880005
0.373175
0.520217
1.039458
1.368551
-1.525023
0.581224
0.855335
0.542113
0.909449
-1.144894
0.088842
0.294352
-0.099964
0.523913
0.839284
0.258147
0.508973
-0.053812
-0.275462
1.968005
0.914316
-0.098090
0.085381
0.872674
0.913404
0.519220
-0.608426
-0.383643
-1.991407
0.802061
0.348664
0.448234
1.170308
-0.147204
0.299622
1.033286
-0.549480
0.680284
0.030019
-0.209179
0.018220
0.219040
-0.519208
1.498247
0.168564
0.283847
0.020542
-0.633294
-2.538206
-0.826203
1.226378
1.387035
-0.163297
0.313754
-0.568686
-1.655665
0.788901
0.336372
0.401269
-0.210731
-1.173151
-0.152889
-0.443920
1.213112
0.712770
0.334044
-0.550025
0.767340
0.998736
0.526460
1.846621
-0.272711
-1.751719
0.660783
0.412481
-0.266410
-1.074485
0.896683
1.909292
-0.918282
0.343456
-0.871735
-0.820409
2.489812
1.295089
1.183403
1.767163
0.160156
-0.266382
0.150526
-0.998954
0.053604
-0.770125
0.049726
-1.225450
0.233899
-1.241202
0.233012
-0.428337
-0.823908
0.292051
0.574329
-0.082402
-0.589526
0.313917
0.258660
0.520227
-0.456812
-0.447281
0.041066
-0.466098
0.407822
1.398470
-0.431619
-0.237695
0.467997
-0.822273
-2.077051
0.063175
-1.009597
-1.443925
-0.260262
0.425301
-1.178082
-0.877416
-1.081928
0.363018
1.044885
1.214312
2.298359
-0.763619
-0.176542
-2.430906
1.073739
1.140284
-1.000706
-0.326676
-0.348829
0.276749
-0.625021
0.619215
0.389851
-2.254100
0.147144
-0.445127
0.453559
-1.545560
0.871543
0.579976
1.734001
-2.584111
-0.850825
0.417505
0.913622
0.866052
0.140930
1.272538
1.143129
-1.847026
1.269580
-0.214780
0.400769
-1.096096
-1.160005
1.027150
-1.183604
0.907775
-0.608305
0.754882
-0.766202
1.848910
0.430588
0.447436
0.974973
0.937207
-0.803483
0.427485
-0.886237
0.142881
2.560907
0.172479
0.975751
-0.298237
0.462595
0.318097
-0.985768
3.800953
-0.837994
0.609574
-0.112000
-0.408634
0.908038
0.045824
0.212388
-0.275270
-1.090774
0.119816
0.539110
-0.244975
0.863398
0.019011
-0.138648
-0.386903
0.021473
0.361894
-3.251549
-3.511023
-0.608602
-0.812943
-0.962160
0.517189
0.177261
-0.521989
0.186434
0.619662
0.679680
-1.102267
-0.410519
-0.288915
-0.879005
0.454299
0.863194
0.407658
1.493418
0.098103
-0.635769
-0.065884
-0.803595
-0.700724
-3.152328
0.697193
1.363853
-0.202577
0.182222
-0.936955
0.315723
1.245706
0.456549
0.063940
1.213316
0.806336
-0.677019
-1.607674
0.210228
0.666644
1.444286
-0.518339
-0.235401
1.298073
0.282711
-0.598809
-0.871351
1.581254
-1.247630
0.213183
0.108532
-0.724921
0.030487
-0.050571
1.418241
0.111023
0.000298
0.323363
-0.516226
1.092885
-1.010426
0.062434
-0.715434
-1.011428
0.752648
2.093517
-0.189376
1.926589
-1.011440
-1.500719
-0.888263
1.511110
-0.151090
-1.180727
-0.650859
-1.130841
1.403415
0.146465
1.289022
0.702170
-0.175820
-1.159285
0.045353
-0.780730
1.197923
-0.119344
-2.036165
-0.950148
0.740329
-0.909880
-0.946435
-1.042343
-0.497247
-0.619804
-0.149535
1.287093
1.511013
-0.157491
0.022860
-1.179177
0.560451
0.417070
-0.944541
1.128355
0.178466
-0.519119
-0.780428
0.808765
0.670120
0.986101
0.842066
-0.355373
1.293067
-0.112016
0.740880
-0.557102
1.537788
-1.168316
-0.342336
-0.059637
-1.070422
-0.567560
1.261896
-0.810263
0.220580
1.279382
0.782040
2.821372
0.400418
0.728585
0.436917
0.622418
0.229920
-0.579361
1.350159
-0.951256
0.749708
1.133716
-0.759786
-1.546421
0.366537
0.466045
0.407034
0.333978
-0.679467
2.202909
1.089992
-0.019279
-0.106583
-0.117294
-0.875836
0.342593
1.032143
-0.397766
-1.147960
0.214438
-0.180277
1.291059
0.680277
-0.080630
-0.371103
-2.289111
-0.555650
0.650142
1.420998
-0.621232
-0.362632
1.094625
0.391194
1.080888
-0.610229
0.118205
-0.576836
0.749216
-0.131008
0.930323
1.206307
-1.409095
-0.464065
-1.193212
-0.155753
-2.022520
0.362402
-0.863747
0.624993
0.995610
-0.207786
0.430439
-0.306818
0.107057
1.397054
-0.813159
0.076660
0.899488
-0.845029
-0.871424
0.310550
0.759449
-0.272070
0.653748
0.694513
0.958622
1.613905
-0.214204
-0.824463
0.281531
-2.069559
-0.284183
-0.926378
1.940541
1.367449
-0.842945
-0.137886
-0.380198
1.378456
0.907992
-1.811755
0.050088
-0.864612
0.917103
-2.405912
1.642690
0.959788
-0.013196
-0.603049
0.509846
0.085734
0.034550
0.452249
-2.415901
0.956047
-0.481558
-0.922921
0.986275
0.537735
1.688254
-0.613979
-0.663608
0.922016
0.460382
-0.906092
-3.474279
0.178951
0.215440
-0.124763
-1.168233
-0.428317
-0.550034
0.925387
-0.256177
1.454338
0.857334
-0.328364
-0.143967
-0.181368
-1.135212
-0.189054
0.841898
0.591730
1.504560
1.935226
0.387112
0.906238
-1.288367
1.181230
1.090599
0.946195
-0.574662
0.650482
1.233696
-0.782402
-2.464511
-1.027747
1.338726
-0.066152
0.266531
0.349000
-1.226057
-0.473992
0.461209
0.297781
0.122699
0.461799
0.353402
0.152957
-0.045775
0.489178
-1.701497
-1.452872
0.010076
-1.633365
-1.219412
-0.299961
-0.262009
0.713269
-1.538560
-1.314126
1.884464
-0.868537
0.515981
0.157672
0.339202
-0.609164
-0.410550
0.397244
1.357835
-0.291678
1.026127
-1.407911
-0.409803
-0.109133
0.107619
-0.268168
-0.727413
2.103451
-2.022363
-0.859880
-0.536442
-0.366997
0.192436
0.571360
0.967953
-1.409781
0.405979
-1.360506
0.612830
-1.096261
0.393858
1.550983
-0.223269
-0.830637
-2.416040
-0.835599
-1.073513
-0.141181
0.893420
-0.261624
-1.083702
-1.349819
0.474027
-0.696806
-0.586014
1.985400
1.910301
1.426472
-0.741652
-0.190365
-0.946490
0.200572
0.360003
0.754957
-0.324623
-0.299191
1.291690
-0.490733
1.361508
0.008065
1.237605
-1.072500
0.477855
-0.305376
-0.479988
0.029012
-1.558398
-0.230175
-0.387210
-0.390263
-1.511005
-2.576657
1.169186
-1.092852
1.694744
0.727395
-0.264972
0.671769
-0.193653
0.392052
-0.363751
0.068912
-1.194336
0.006020
-0.079616
1.457463
-0.394087
-0.073521
-0.411992
0.553096
-1.094580
-0.836745
-0.368878
-0.959322
-2.807611
-0.426492
-0.040041
-1.023731
0.363704
0.895524
0.042265
0.151694
0.189557
0.075618
0.305907
-0.127460
0.428890
0.004408
-0.484417
0.897448
-0.416343
1.141603
0.011479
-0.230621
0.379189
1.643755
0.417260
0.744724
-0.291714
-0.374476
-0.002187
-0.190550
-0.572951
1.204622
-0.223591
-0.924328
-0.255714
0.012589
1.786443
1.056209
-1.776641
-0.292618
0.058105
0.033413
-0.660298
-0.542465
-0.600936
1.112421
0.458244
-1.518278
0.731524
-0.464298
1.032551
-0.064775
1.236724
-0.279570
-1.261953
-0.376792
-1.604755
-1.444086
-0.765317
-0.330811
0.492388
-1.845344
0.358543
0.807182
-0.769662
-0.153773
1.770345
0.857230
-1.531739
1.665296
2.223230
2.205035
0.183118
1.699367
-0.182146
-1.515754
-1.045075
0.397054
-0.221758
-0.803453
1.167267
1.777410
-1.314515
-0.055345
0.636404
0.830536
-0.232954
0.357135
0.864977
-0.232449
0.901361
-1.265192
0.627642
0.378810
-1.310421
0.670954
-1.944309
0.857893
-1.528554
1.007657
-1.491127
-0.930661
-0.801842
2.217638
1.696813
0.074514
0.348942
-1.087940
-0.368057
-0.082680
0.135603
1.492313
0.789305
-1.643016
0.863132
-0.958914
0.540608
1.343438
-0.930850
0.396104
1.606414
-0.007921
-0.706892
1.302235
1.376445
0.715232
-0.852543
0.273315
-0.823312
-1.142882
1.288002
-1.254984
-0.108498
-0.720040
-0.468344
1.151470
0.237025
0.594517
0.391131
0.175090
-1.340405
-1.877509
-1.233862
1.251382
-1.327404
-0.664942
0.144475
-0.767323
1.473363
0.724602
0.054056
-0.197993
0.995237
0.333915
0.935659
0.713771
-0.397076
0.038908
0.525568
-0.182437
-0.561657
-1.089666
0.660595
-0.682895
0.490152
0.953531
0.593671
1.009385
-0.927905
-0.647706
-1.911744
-1.164664
-0.036133
-1.058732
-0.652645
0.340639
0.952873
0.647850
0.171710
-0.055787
-0.264390
0.548408
-0.766653
-0.393021
-0.037179
1.143779
0.995675
0.887682
0.745579
0.368212
-1.205845
0.618731
0.178142
0.824226
-0.942847
0.387902
1.341186
-0.326867
-0.529767
1.420640
-0.265264
1.313213
-0.647451
-1.108483
0.875497
-0.633400
0.849469
-0.718056
-0.174417
0.314636
0.134701
0.838925
0.834755
1.246986
0.283558
0.908154
0.262543
0.549833
-0.484679
0.067737
-1.517355
0.475145
0.055863
-0.624780
0.255352
0.180786
0.086103
-1.788734
0.231468
1.720983
1.583116
0.753945
-0.150470
-0.660704
0.051750
-0.669642
-1.534119
-0.786133
1.254877
0.186079
-1.565518
1.408319
-1.117321
0.247434
0.692909
0.197638
0.987229
0.166438
1.180999
-0.762872
0.414224
1.576169
-1.045961
1.143227
-0.212595
-0.931119
-1.291744
-0.682956
0.222813
1.051702
0.123020
-1.153789
0.132824
1.327931
1.254614
-0.840532
-0.579619
-0.686313
-0.035764
0.655909
-0.615713
1.376890
0.943269
-1.246500
-0.855306
-0.168784
-0.951845
0.593306
-1.212182
-0.314356
-1.084537
-0.720288
0.008908
-1.646455
1.567822
0.579634
-2.234282
-0.857163
-0.110329
-1.574473
-0.654152
-0.187008
-1.132957
0.416842
-1.090466
1.641008
0.811427
-1.509967
-1.158139
0.881180
0.083906
-0.908101
-1.762539
0.128909
-0.585301
2.617902
-0.964847
-0.449482
-0.053060
0.162886
0.049751
-0.731437
0.217881
-0.477949
-0.210867
0.517664
-2.661559
0.377787
-1.090320
-1.361138
-0.408031
-0.080540
-0.412181
-0.890823
-1.350980
0.054809
0.145558
1.450295
0.345116
0.157718
2.273818
-1.604446
2.135832
0.479046
0.478287
2.274395
1.284217
0.682540
-1.267942
0.790114
1.062679
-0.347885
-0.100182
-0.214896
0.170650
0.427710
0.436774
0.589669
1.223550
-0.551695
-0.415481
-0.039973
0.221694
-0.241704
-0.726429
-0.784467
-0.100702
-0.415752
-0.816393
0.459896
0.685092
1.237630
-0.200719
-1.977409
0.844341
-0.190766
0.118529
-1.167329
-0.566068
-1.230457
0.564857
-0.378547
-0.369944
1.211977
1.207881
-0.753496
-0.137705
-1.532176
-0.536580
-0.525998
-0.213460
-0.033813
-0.490735
0.776427
3.210035
-0.110684
-1.991037
-1.343523
0.484322
0.192997
-0.283532
0.343723
-0.088794
-0.931149
0.793970
-0.027073
-0.583005
-1.363481
0.212053
-0.774300
0.782235
-0.743338
0.563908
0.170201
0.984374
-1.013253
0.063603
0.311823
-1.053930
-1.459465
-1.215967
-0.778173
-0.770287
0.575788
-1.373287
-0.925886
0.258554
0.452880
0.211162
-0.305856
0.810261
-0.747864
-0.084398
-1.084110
-0.266694
-1.280488
1.019672
-0.775247
0.475356
-1.755122
0.717672
1.721750
-0.461999
-0.354167
-0.393953
3.277799
-0.073138
0.044020
1.566050
1.454774
-0.643749
-0.589609
-1.668589
-0.568465
-0.991409
0.083186
-0.103304
-0.286532
0.953916
1.488891
0.134149
-1.075452
-0.014140
0.306775
-0.105694
2.592065
0.374063
1.026246
-0.335256
-0.453303
-0.878657
-0.583556
0.164054
0.310918
0.307566
1.330387
0.563493
-0.366248
0.383928
-1.100415
-0.686872
0.384168
0.829099
-1.783632
0.155186
-0.223676
0.322299
0.916106
1.621191
1.227952
1.213879
-0.387431
-0.304120
-1.666892
-0.203283
2.001003
-2.002552
1.276507
1.001583
-0.706755
-1.264490
-0.408189
0.288123
-1.272921
1.171274
-1.592845
0.474351
-0.173002
-0.244045
0.507089
1.675276
0.424993
-2.090640
2.908685
0.200595
-0.230481
-0.444437
-1.242388
0.864681
-0.427134
1.083248
0.905262
2.184321
-0.132646
0.023600
0.375014
0.256444
-0.018399
0.035956
-0.816234
0.345583
-0.014271
-1.326691
-0.230801
0.278501
-1.174371
-0.066555
-0.265617
0.216459
0.406437
0.538315
0.419613
0.853049
1.864201
-0.899433
-1.131185
-0.650707
1.197056
0.687432
-1.266917
-0.886586
2.192258
-1.633822
-0.780710
0.286704
-0.558964
0.568974
-0.091544
-0.765028
-0.620464
0.718823
0.011238
-1.240247
0.064906
1.620694
1.114820
-0.053439
-0.676642
0.365395
0.448291
0.602937
-0.532158
-1.496629
-1.011155
-0.333630
-0.421118
1.481125
-0.869230
1.114588
0.936027
-0.579919
1.234242
-1.650214
0.602770
0.180034
1.813897
0.563197
-0.820401
0.835150
0.155385
0.492628
-0.027112
-0.262413
0.615221
0.500120
-2.065040
0.688670
-0.270778
-1.559185
1.427231
1.085667
-0.677721
-0.639967
0.547069
0.443800
1.403927
0.367703
0.090044
-2.074415
1.410544
1.267024
-0.470107
-0.010085
0.223010
-2.197713
1.386699
0.256582
1.473928
-0.563953
0.102677
-0.244660
0.534843
-1.479471
-1.167226
-0.991678
-1.186844
-1.190170
-2.892975
0.834879
0.255777
0.049071
0.565538
-1.031997
0.905546
1.571736
0.924051
-0.767641
0.553161
-0.196462
0.628421
-1.691547
0.426876
-0.174276
-1.983805
0.637551
0.207917
-0.062676
-2.066908
-0.319616
0.537161
-0.706502
-0.297725
-0.344769
0.156350
-1.685892
0.333232
-1.143538
0.179589
1.471240
-0.071067
0.645941
-0.469895
0.492811
-0.530561
0.170131
0.574333
1.240472
0.085663
1.238456
-0.538036
1.650234
0.487813
0.938000
-0.922652
-0.411542
0.604180
0.842730
-0.598637
-1.181562
-0.753374
1.446809
0.400884
-0.268796
-0.275620
-0.971364
1.377315
-1.262068
1.526521
1.055399
-0.310313
-0.012093
0.167113
-0.564047
-0.558588
-0.371642
0.380080
-1.853546
0.048879
-0.160461
0.324414
0.039156
1.252006
0.580291
-1.174894
-0.334747
1.817776
1.175457
0.698083
0.438048
-0.234993
-0.286986
-0.478103
0.030995
-0.154899
-0.313870
-0.704860
-0.455961
0.410838
-0.715034
0.057429
-0.166108
-0.291412
-1.500815
-2.133709
-1.430508
-0.411200
-0.842118
0.746566
0.142150
0.230830
2.300188
-0.974994
-0.383560
0.236612
0.130471
-0.007802
0.258555
-0.142441
-0.792375
-0.348835
1.149083
2.507009
-1.755033
-0.075157
0.463322
0.306741
-0.619870
-0.307157
-0.509856
0.932169
0.905849
0.041537
-1.037386
-1.030273
-0.316497
-0.115415
0.901146
-0.217076
0.264109
-0.997181
-1.931801
-0.338989
-0.875371
0.328958
0.379971
0.823494
-0.215921
0.987488
-0.218678
-0.642384
0.315257
0.650225
-0.104843
-0.478241
-0.779386
0.271230
1.122756
-1.367093
-0.360248
0.044939
-0.235741
0.466298
-0.135840
-1.280428
-0.705377
0.714954
-0.076224
-0.576792
-0.248679
1.018593
-0.999544
-0.382455
-0.349086
-1.116756
0.110405
0.504180
-0.776738
-1.536226
-0.342763
-0.600697
0.273132
-0.857779
-1.709285
1.165663
-1.221686
-1.237279
-0.745835
0.491892
1.195463
-0.368430
-1.200689
-1.107190
1.026913
-0.374273
1.238856
-0.180467
1.307754
-0.380251
-0.533377
2.142362
0.448569
-1.550738
-1.070681
0.808317
-0.668621
-1.116997
0.104796
-0.684649
0.887930
-0.702683
-0.478805
-0.642705
-0.762486
0.000374
-0.666943
-0.669508
1.644721
-0.246471
0.125999
0.128835
-1.201338
1.081218
0.725100
0.258384
0.701544
0.061514
-0.440737
1.795352
0.456848
1.191249
0.843415
0.166427
0.252363
-1.347866
0.434380
0.476763
0.154335
-0.178065
1.157041
0.269233
-0.178674
-0.785045
1.300376
0.362055
-0.379521
-0.601894
0.842079
-0.879079
-0.136155
0.803854
-0.217816
0.176325
-0.263357
0.995616
-0.707419
-0.460465
1.215405
0.751959
0.922206
0.529618
0.862107
-0.096259
0.165695
0.859904
0.096334
-0.112736
0.904502
1.408206
0.103218
-0.155118
1.337923
0.591566
0.516413
1.070329
-0.224735
0.595669
0.360560
-1.920036
-0.473145
0.727877
-1.883531
-1.424971
0.644760
-2.571775
-1.579709
-0.585365
1.643061
0.629295
1.496572
-0.029852
-0.041713
0.575107
-0.253594
-0.752434
0.337168
-1.326810
-0.214969
0.660555
-0.293836
-0.015690
0.726825
2.013808
1.907658
0.127208
0.984991
1.381137
-0.426310
-1.165076
-0.289434
-0.277879
-1.127386
1.221755
0.196508
0.095658
1.431383
1.480062
-0.247370
1.492863
-2.103306
2.755994
-0.074038
-0.550073
1.246696
0.511659
0.904793
0.719146
1.213585
-0.597689
-1.455033
0.059394
-0.128798
-0.755732
